layer_conv1/kernel:0
(3, 3, 1, 16)
[[[[ 0.19079456 -0.11935392  0.01827404  0.03534669  0.08175456
    -0.26504472  0.04602234  0.15721294  0.0834185   0.00747245
     0.10124385  0.20447347  0.09270484 -0.17645346  0.0654964
    -0.24005693]]

  [[-0.09865127 -0.03725911 -0.24495104  0.12709492  0.13982102
    -0.21467084  0.01166261 -0.05979944  0.22138225 -0.0537721
    -0.11440884  0.14636974  0.09651901  0.07860336 -0.18219343
     0.04622283]]

  [[ 0.18044539  0.00896944 -0.20646308  0.19702072  0.09635533
    -0.09918062  0.14937682  0.08088918 -0.1777894  -0.0197069
    -0.28614923  0.06650795 -0.15153098 -0.01970377  0.10244253
     0.11767647]]]


 [[[ 0.17506152 -0.00803832 -0.08302027 -0.11552228 -0.02856409
    -0.2791661   0.17778288  0.08492113  0.08712561  0.00937443
    -0.22225027 -0.06270896  0.01292057  0.01085572 -0.0965425
    -0.18938683]]

  [[-0.01179684 -0.2923724  -0.01365928 -0.12939315  0.18654001
     0.17855607 -0.0299122  -0.16119473 -0.1562763  -0.08723367
    -0.20735273 -0.00804316  0.16002087  0.22261178  0.01916816
     0.09231015]]

  [[ 0.25273755 -0.12297519  0.05716383 -0.02732531 -0.16131254
     0.08837262 -0.15215306 -0.18947397 -0.12660125 -0.09128575
    -0.16414164  0.0672174  -0.22374235  0.19373287  0.13326228
     0.12011557]]]


 [[[ 0.08783463  0.20933427  0.04604363 -0.27820867 -0.08836034
    -0.20132285  0.09772347  0.05931635 -0.08460416 -0.06418367
    -0.03713958 -0.1730237   0.20589526 -0.10487798  0.17618339
    -0.2849516 ]]

  [[ 0.1004685   0.08241261  0.1980657  -0.04394462 -0.09584279
     0.1518493  -0.33288682  0.2196254   0.08203406 -0.12234075
     0.23026432 -0.21685113 -0.02847906 -0.1339526  -0.13134746
    -0.17207092]]

  [[-0.13255514 -0.2372462   0.15600412 -0.25085127 -0.126152
    -0.08097444 -0.04333071  0.0457732  -0.2482553  -0.16906182
    -0.15885678 -0.20895125 -0.15603048  0.19307202 -0.11335728
    -0.06570836]]]]
layer_conv1/bias:0
(16,)
[ 0.02299216  0.03938265  0.12989168 -0.02312959  0.05352145  0.03135153
 -0.07260437 -0.10728985  0.03198009 -0.0195392   0.0014554   0.07545826
 -0.05762949 -0.07170014 -0.03061173  0.02570558]
batch_normalization/gamma:0
(16,)
[0.80877    1.1355021  1.1839639  1.039657   0.8212097  0.99801046
 0.99591714 0.7994765  0.9515194  0.98896337 1.0927997  1.0323074
 1.0127099  0.9758088  0.8134992  1.0666255 ]
batch_normalization/beta:0
(16,)
[ 0.19829497  0.09481718 -0.04705082  0.12696312  0.06417408  0.02056652
  0.26196364  0.10989418  0.14412326 -0.37279567  0.06975264  0.02916087
  0.15539157  0.13800254 -0.04976609 -0.0585303 ]
layer_conv2/kernel:0
(3, 3, 16, 36)
[[[[-3.38226967e-02  9.21462327e-02  9.80136767e-02  6.11188971e-02
    -2.13283580e-02 -2.03507334e-01 -1.35412067e-01 -1.51517943e-01
    -3.62435021e-02 -6.75653815e-02  9.08772796e-02 -1.03416108e-01
     9.85289589e-02  1.14357159e-01 -1.07032210e-01 -1.29340886e-04
    -1.57490879e-01  6.38832897e-02 -1.32728368e-01 -7.70946294e-02
    -9.52278078e-02 -1.15008667e-01  8.65219608e-02  6.51631728e-02
    -1.39357736e-02  4.39101644e-02  1.33207902e-01 -3.50508913e-02
    -1.17531553e-01 -2.00377125e-02 -1.49119738e-02 -9.28977132e-02
     2.58347159e-03 -1.33695334e-01  1.29354075e-01  2.44076066e-02]
   [-5.04064374e-02  1.03235587e-01 -1.40409082e-01 -2.64417440e-01
    -7.25977682e-03  2.24459156e-01 -5.72706759e-02 -7.91110992e-02
    -1.21890448e-01  1.06521890e-01  2.25996211e-01 -1.24105982e-01
     6.52478710e-02 -1.13131694e-01 -6.08511716e-02 -6.28813356e-02
     2.95908004e-01  7.35306144e-02 -1.29628956e-01 -1.15045913e-01
    -5.36828898e-02  3.81532535e-02  1.82080865e-01  4.56869304e-02
     1.65406227e-01 -8.03814232e-02 -6.29022671e-03 -4.00290526e-02
     1.12898797e-01 -2.08768517e-01  1.13063067e-01  9.48380083e-02
    -1.18896626e-01  7.80422166e-02  8.64512473e-02 -1.44997075e-01]
   [-8.36158693e-02 -1.15138166e-01 -1.37263864e-01  6.36848062e-02
    -3.00943796e-02 -7.18081184e-03 -1.21099435e-01  7.09650666e-02
     1.59058675e-01  3.47795561e-02  5.82326762e-02  2.77044088e-01
     5.10326289e-02  3.02205145e-01 -5.87108918e-03 -1.62410773e-02
    -5.17490022e-02 -1.14089414e-01  3.67483427e-03  3.64345610e-02
     2.87638158e-01 -3.43438834e-02  5.76682203e-02 -2.96895318e-02
     1.25682980e-01  5.76258041e-02  1.51639700e-01 -7.80359805e-02
    -3.47562321e-02 -1.72434926e-01  2.20819697e-01 -7.82178715e-02
     1.09092146e-01 -1.95744157e-01  6.95276260e-02 -1.10781901e-01]
   [ 3.99603955e-02 -1.38861751e-02 -7.10516423e-02 -6.98587624e-04
     9.29326490e-02  6.61019832e-02  1.14034206e-01 -1.53832585e-01
     2.09579077e-02  1.63768396e-01  1.30047366e-01 -1.69430658e-01
     1.04791671e-01  4.91354614e-02  2.24040598e-02 -2.31132712e-02
     9.87260416e-03 -1.27335578e-01  2.99920980e-02 -9.72375050e-02
    -5.50518297e-02  8.11149925e-02  1.37728795e-01 -5.01996316e-02
    -5.37599903e-03 -5.07864207e-02 -6.31599966e-03 -1.00922495e-01
     1.99385539e-01  8.28687027e-02 -6.33487329e-02 -5.20630367e-03
     2.19796225e-02  7.97872543e-02  1.61338300e-01 -1.39505252e-01]
   [ 1.08931601e-01 -1.61477223e-01 -1.01302387e-02 -2.85700094e-02
     5.97336106e-02 -1.15117364e-01  2.65577268e-02  9.98865664e-02
     7.45757148e-02  5.21169342e-02  1.35592008e-02 -2.54586875e-03
    -3.19777764e-02  7.55929425e-02  5.38613833e-02 -5.59530593e-02
    -6.99797645e-02 -1.25973314e-01  8.80135130e-03 -1.13015948e-02
    -3.09897568e-02 -8.66612196e-02 -8.35378692e-02 -1.85121790e-01
    -4.75371815e-02 -2.62542870e-02  9.98022780e-03  7.16242567e-02
     1.23307280e-01 -7.82219041e-03  7.64483819e-03  4.99884672e-02
    -5.32806702e-02 -5.03874123e-02 -1.06420338e-01 -1.29247025e-01]
   [ 3.50411944e-02 -3.41787487e-02 -7.29735717e-02 -7.40539283e-02
    -2.74054259e-01 -9.09536928e-02 -4.50027958e-02  1.26361385e-01
    -2.15332564e-02  1.01889171e-01 -6.39447868e-02 -3.58536355e-02
    -5.21860532e-02  1.37894228e-01  7.18757743e-03  2.45533399e-02
     3.64133604e-02 -2.73356102e-02  1.08730726e-01  9.00884718e-02
     1.45357013e-01  2.01602057e-02 -2.88399756e-02 -7.83223212e-02
     2.24465087e-01  1.86791718e-01  9.49293077e-02 -1.39827520e-01
    -2.05955267e-01 -5.96510172e-02  1.68989390e-01 -2.68030614e-02
    -1.35098875e-01 -9.15114507e-02  1.22360595e-01 -9.68922600e-02]
   [-8.39739442e-02  5.88165224e-03 -2.73364931e-02 -2.07338542e-01
     2.31716618e-01 -1.56844184e-01 -1.17780641e-01  3.70045528e-02
     4.57313024e-02 -1.04207180e-01  1.19316511e-01 -1.06374122e-01
    -9.16571468e-02  7.82071501e-02  1.20118119e-01 -7.25746676e-02
    -9.14806873e-02 -1.03050381e-01 -2.49077640e-02 -1.38916731e-01
     1.63837131e-02  7.72478106e-03 -2.30478887e-02 -1.08947925e-01
    -4.80098501e-02 -1.20148644e-01  1.71887904e-01  1.47506237e-01
    -1.55600280e-01  9.43841115e-02 -8.54796469e-02 -1.44933075e-01
     9.52685177e-02 -1.18289530e-01  8.95287842e-03 -9.76136848e-02]
   [ 1.18708253e-01  1.69487640e-01  8.06555524e-02  3.97845358e-02
    -1.03183761e-01 -1.30151063e-01 -1.15084983e-01 -3.33437137e-02
     8.45872462e-02 -1.54958352e-01  8.39248598e-02  1.57867402e-01
     1.83129907e-01 -1.48321791e-02 -1.18795916e-01 -1.17491715e-01
     7.70876929e-02  7.25980103e-02  2.73434110e-02  1.57182038e-01
     1.18044183e-01 -4.13497873e-02  1.74954999e-02  3.74013372e-02
     1.12322317e-02 -1.72459438e-01 -5.15995622e-02  2.80096997e-02
    -3.52737382e-02 -1.67872220e-01 -6.98544132e-03 -1.71091735e-01
     3.72071750e-02 -7.20902011e-02  2.39809752e-01 -9.39342892e-04]
   [ 2.11455338e-02  4.69711609e-02  6.51504025e-02 -1.29893035e-01
    -2.69054860e-01  6.88176528e-02 -6.53854199e-03  3.59355099e-02
     7.90017247e-02 -2.97179492e-03  9.56948400e-02 -6.45130221e-03
     1.00166481e-02  1.56545460e-01 -5.28739393e-02 -4.84063961e-02
     8.37223455e-02  1.14550807e-01  1.57271236e-01 -5.29235080e-02
    -7.91277066e-02 -1.23846084e-01  1.78301185e-01  4.39614523e-03
     1.81149854e-03 -1.27177984e-01 -1.02413110e-02 -1.14484355e-01
    -1.05133936e-01 -4.11593392e-02  7.76507109e-02 -1.53695777e-01
     2.82305311e-02 -1.13617487e-01  2.49909870e-02 -1.81658268e-01]
   [ 2.69807070e-01 -8.65673833e-03  5.96759617e-02  2.06633300e-01
     3.38007808e-01  5.46152405e-02 -6.08548187e-02  2.23215580e-01
     1.70154482e-01  1.24948405e-01  2.56491929e-01  1.26741260e-01
     9.76124108e-02  1.83165208e-01 -2.07087975e-02  2.22921520e-01
     2.45003626e-01  1.52332991e-01  2.28818625e-01  1.02889866e-01
    -6.71887249e-02  2.10843533e-01  8.00578967e-02  1.95253149e-01
     3.70481499e-02  4.85497601e-02  3.15851569e-01  1.33414999e-01
    -1.69665124e-02 -2.35401392e-01  2.23892659e-01  1.42722458e-01
     2.02640578e-01  2.45557964e-01  2.61649162e-01  1.79723084e-01]
   [ 7.17400238e-02 -1.42731652e-01 -8.59779678e-03 -4.62571457e-02
     5.09621203e-02  1.39315516e-01  9.10617691e-03 -4.28539561e-03
     1.21378675e-01  8.82732570e-02 -1.05238259e-01  7.26515874e-02
     6.61038235e-02 -4.01277840e-02  8.59915391e-02  6.92703798e-02
     1.73545241e-01 -2.72148605e-02 -7.32950168e-03 -1.39256865e-01
     2.66193926e-01 -4.65974994e-02 -1.32465735e-01  3.62053290e-02
     3.09124798e-01  1.74511656e-01  1.56949669e-01 -6.12074882e-03
    -1.56568423e-01  7.77836964e-02  2.56853044e-01  6.38602301e-02
    -4.92947027e-02  2.45031212e-02  3.58770117e-02 -1.17421538e-01]
   [ 5.39297201e-02 -1.70392469e-02  3.30084711e-02  2.18876645e-01
     6.24849126e-02  2.34272536e-02  8.75144228e-02 -6.24333322e-02
     8.94269869e-02  1.49787113e-01  2.42099628e-01 -8.24503750e-02
     1.19886659e-01  2.00830773e-02  7.63672590e-02  4.55593951e-02
    -7.62653127e-02 -9.33757424e-02 -3.08559202e-02 -2.46446908e-01
    -8.21161270e-03  1.68789830e-02 -1.17134303e-01 -1.64084539e-01
    -3.86878550e-02 -9.55545977e-02  1.23006292e-01  9.82177407e-02
    -2.18180548e-02 -6.27033934e-02 -3.88909653e-02 -6.97821900e-02
     1.10696822e-01  2.99739614e-02 -4.71030064e-02 -2.00205352e-02]
   [ 9.21508223e-02  1.80995613e-01  2.38723867e-02 -1.27676845e-01
    -1.53081939e-01 -1.47631094e-01 -9.54758900e-04  1.35339469e-01
     1.20417491e-01 -2.53799230e-01 -1.48047760e-01 -2.03840435e-01
    -5.29165789e-02 -1.53270485e-02 -8.41945410e-03  1.54369429e-01
    -3.40548046e-02  9.69964787e-02 -2.04267409e-02 -6.03974350e-02
    -1.22336179e-01 -1.66939512e-01 -4.03218763e-03 -1.43905766e-02
    -5.88304028e-02 -1.97048157e-01 -9.34488699e-02 -2.87296511e-02
    -1.31258249e-01  1.55924723e-01 -1.89374276e-02 -2.56788671e-01
    -8.68712291e-02 -1.93846598e-01 -7.95979202e-02 -1.50220081e-01]
   [ 1.12587802e-01  5.83508871e-02 -5.93715385e-02 -8.47976562e-03
     1.65574849e-01 -1.43668875e-01 -6.89691538e-03 -1.89064965e-01
    -1.26071498e-01 -2.35159963e-01  5.94187714e-02  6.63512945e-02
     1.78106010e-01  1.35976866e-01 -2.24679653e-02 -1.51733309e-01
     1.97404530e-02 -1.03357606e-01  5.78155406e-02 -1.07449196e-01
    -1.17818296e-01 -1.94586590e-02  1.27482787e-01  1.16361789e-02
    -1.11422148e-02  5.29359691e-02 -6.32160306e-02 -5.46884723e-02
    -7.15099499e-02  1.82663515e-01  3.90257798e-02  7.73911923e-02
     6.91202655e-02  3.36541943e-02 -8.28844458e-02  1.33449242e-01]
   [ 1.44810960e-01  4.75589372e-02 -1.11683309e-01 -1.77624244e-02
     9.61072892e-02 -3.37521285e-02 -6.67823106e-02 -2.58829668e-02
     1.88384324e-01 -8.10760334e-02 -1.11751981e-01 -3.65176015e-02
     2.36614011e-02  3.48567255e-02  9.92201567e-02 -1.23024009e-01
     1.27248004e-01 -2.71664336e-02 -2.80792103e-03 -3.36460993e-02
    -1.09645851e-01 -8.16176608e-02  8.14289823e-02  1.18366018e-01
     1.47230566e-01 -1.46285638e-01  1.39508232e-01 -1.93082169e-02
     3.56951691e-02  3.32300458e-03 -1.88385814e-01  1.41710043e-01
    -2.26945784e-02  1.21103957e-01  7.23599643e-02  1.19778432e-01]
   [ 2.28606731e-01  1.43929273e-01  7.80993840e-03 -1.49348661e-01
     1.69453144e-01 -8.18756074e-02 -1.01149544e-01 -5.39008342e-02
     4.77944277e-02  6.56260028e-02 -2.68429592e-02 -1.87623799e-02
     7.61162713e-02 -1.44391641e-01  4.66171354e-02  1.82816125e-02
     5.23404106e-02  1.85734499e-02  1.10049985e-01  8.42584893e-02
    -8.63593072e-02  3.06969602e-02  2.56925911e-01 -2.41843358e-01
     1.57005876e-01  6.01270087e-02 -3.57277483e-01 -4.42549065e-02
     1.25539452e-01  1.82167411e-01 -2.65622940e-02  1.68213069e-01
     1.72121748e-01  6.51729628e-02  8.59386474e-02  9.83906761e-02]]

  [[-9.25043151e-02 -3.01787853e-02  4.89267297e-02 -1.38333753e-01
     5.52540831e-02 -1.06451951e-01 -1.40250763e-02  1.68073162e-01
    -1.26061365e-01 -8.14102367e-02  6.39076158e-02  1.35845421e-02
    -2.13392284e-02  1.51951564e-02 -3.94921824e-02 -2.03511342e-01
    -5.37759736e-02  1.34532467e-01  3.84397246e-02  9.66303609e-03
    -1.03452271e-02 -8.36142376e-02 -1.67062432e-02  2.13994831e-02
    -2.38949724e-04  1.22517198e-01 -2.47157924e-02 -1.12405911e-01
    -9.95870829e-02  7.86943883e-02  8.74082185e-03  7.38463625e-02
     2.01116409e-02  2.27985233e-02  4.21885997e-02  8.92182719e-03]
   [ 1.66428432e-01  4.73218821e-02 -1.19341537e-01  1.06629983e-01
     3.65599543e-02  2.51966685e-01 -5.66427596e-02 -3.32615405e-01
    -2.04085023e-03  5.45098148e-02  3.49793471e-02 -9.57087204e-02
     2.07503177e-02 -8.42829421e-02 -3.23708169e-02 -2.00547446e-02
    -1.98777378e-01 -3.80150881e-03 -2.48993054e-01 -1.86169446e-01
     8.71381164e-02  9.83486399e-02  1.84005909e-02  8.16055611e-02
    -2.73523442e-02 -6.02088422e-02 -9.50024650e-02 -6.22488856e-02
    -7.48379678e-02  3.10900826e-02 -1.28563009e-02 -1.07585490e-01
    -1.09921791e-01  7.52083212e-02  4.91151549e-02  1.33816168e-01]
   [ 5.60095571e-02  2.38443930e-02  1.61052623e-03 -1.57501120e-02
    -7.05599859e-02 -5.90633154e-02 -1.05610140e-01  1.32315457e-01
    -1.13615341e-01 -5.38981222e-02  1.32721692e-01  2.98635289e-02
    -1.50517523e-01  1.12099595e-01  2.98474301e-02  9.33448076e-02
    -3.96553949e-02  1.49930427e-02 -4.23442572e-02  1.10022604e-01
     1.86408162e-01 -3.99295129e-02 -1.71650276e-01 -7.04158517e-03
     5.97766554e-03  2.62354221e-02 -3.76306921e-02 -6.48033395e-02
     2.92351037e-01 -2.22925484e-01  1.70316026e-01 -3.09974719e-02
     3.88989365e-03  3.70636545e-02  4.93115187e-02 -2.07863003e-01]
   [-2.10954934e-01 -1.85170203e-01 -1.98298141e-01  3.19640338e-02
     7.70537034e-02  7.10088611e-02  1.70692429e-01 -7.82864168e-02
     1.37295261e-01  4.34529632e-02  1.34703115e-01 -7.93263689e-02
     4.16474007e-02 -1.41140714e-01 -4.93140705e-02  1.16091557e-01
     9.34419781e-03  7.87939131e-02 -1.29739970e-01  1.31122777e-02
     3.97195071e-02 -7.78484065e-03 -1.40544459e-01 -5.36072589e-02
     1.09244749e-01 -3.40322405e-02  1.18872896e-01 -1.28925934e-01
    -9.94235836e-03  9.69509333e-02 -3.43111455e-02  8.70904047e-03
     7.92125091e-02 -1.40989184e-01  1.15782194e-01 -7.93976486e-02]
   [-8.34847465e-02 -1.51116960e-02 -5.77713773e-02  1.03957087e-01
    -7.48554021e-02 -4.21398543e-02  3.78309451e-02  2.00929359e-01
    -2.97820121e-02  1.81337749e-03  9.44147632e-02 -1.77329049e-01
     4.97233868e-03  3.86362709e-02  6.03500474e-03 -1.37624377e-02
    -5.02041802e-02  5.09767607e-03 -1.54603198e-01  2.96036247e-02
    -1.88825667e-01  5.24202399e-02  3.87091227e-02 -1.13014407e-01
     4.65491749e-02  4.23629396e-02 -3.32864039e-02  7.32864514e-02
     1.85361177e-01 -2.62421165e-02  1.26283150e-02  8.60292017e-02
    -1.18438236e-01 -1.32794660e-02  3.43640074e-02  5.80127835e-02]
   [-2.81164855e-01  4.11672816e-02  1.33134708e-01 -2.35772654e-01
    -8.87804329e-02 -1.65586293e-01 -3.21215428e-02  1.70752890e-02
    -1.26406789e-01 -6.58007786e-02  1.76994622e-01 -3.83977704e-02
    -1.69954628e-01 -1.18356096e-02 -1.76529661e-02  3.31219733e-02
    -3.39675024e-02  1.08159274e-01 -1.03330705e-02 -6.21018931e-02
     9.30344462e-02 -1.64717361e-01 -5.83816366e-03  1.16724297e-01
     5.36668971e-02  1.89988688e-01  1.05912425e-01 -1.35931998e-01
     8.74587372e-02 -1.46723792e-01  1.82954058e-01  4.78647351e-02
     2.14953050e-02 -9.20202285e-02 -1.26050502e-01 -6.06753957e-03]
   [-1.27235830e-01 -1.59404188e-01 -7.72023648e-02 -1.58306882e-02
    -1.07615292e-01 -2.04641297e-01  4.01878245e-02 -6.62946189e-03
     7.86123350e-02 -1.63817704e-02  1.01223603e-01 -1.28639922e-01
    -1.59738157e-02  7.65240425e-03  1.31194979e-01 -8.42082351e-02
    -2.22767338e-01 -2.25430150e-02 -3.10965002e-01 -1.86474696e-01
    -1.76265880e-01 -1.81631118e-01  1.65568978e-01 -9.48137641e-02
    -3.37306708e-02 -8.36982206e-02 -5.17638540e-03  5.66585213e-02
    -1.26980012e-02 -1.69041559e-01  7.27830902e-02 -1.34312749e-01
     7.12052584e-02 -1.50806904e-01  9.80219319e-02  1.41660795e-02]
   [ 2.48720422e-01 -7.22597986e-02  7.14727268e-02 -2.60304920e-02
     3.92959528e-02 -9.03515294e-02  3.41895176e-03  5.91591597e-02
    -2.80881990e-02 -2.61094179e-02 -9.42053571e-02  4.45018820e-02
     1.32604256e-01  1.14094503e-01 -1.95843037e-02 -5.17102182e-02
    -2.79918220e-02  5.34494128e-03 -9.26028118e-02  3.49095985e-02
     1.18868560e-01  6.50600269e-02 -6.11792579e-02  9.49832704e-03
    -8.98995399e-02 -1.68255225e-01  9.55555514e-02 -2.08225772e-01
    -3.75569835e-02 -7.51502141e-02 -5.87156042e-02 -1.01545136e-02
    -5.76792955e-02  3.19038667e-02  5.75862676e-02  2.16005266e-01]
   [ 1.17573455e-01 -1.29473567e-01  6.60200417e-02 -2.43256125e-03
     3.86383832e-02 -1.89553633e-01 -1.05412394e-01  5.18220402e-02
    -2.09358279e-02 -1.13336064e-01  4.10188287e-02 -2.21833244e-01
    -1.29682481e-01  3.74761894e-02 -2.18631253e-01 -2.90341936e-02
     6.25745878e-02  1.22537501e-01  4.89916429e-02  5.27815372e-02
    -1.47301573e-02  5.48822470e-02  1.21547617e-01  8.19382295e-02
    -5.23860641e-02  7.08600655e-02  9.79479253e-02 -9.60197598e-02
     1.88342303e-01 -1.41170710e-01  9.43462402e-02 -1.70911893e-01
    -1.49796739e-01 -8.17623138e-02 -1.29238486e-01  3.82242491e-03]
   [ 2.98767656e-01 -2.49669403e-02  3.80625552e-03  7.44323730e-02
     2.99402028e-01  3.24767567e-02  1.38539076e-01  3.04033637e-01
     2.15400726e-01 -4.48224042e-03  2.24265710e-01  1.18724309e-01
     1.97669327e-01  7.69772455e-02  1.24108434e-01  1.87401026e-01
     1.41803935e-01  1.91109017e-01 -1.73783153e-02  1.96063086e-01
     2.53645424e-03 -8.39566141e-02  1.87997092e-02  9.84318629e-02
     1.27861202e-01 -6.44069836e-02  2.39294186e-01  9.86379385e-03
     1.07753538e-02 -8.99826661e-02  1.38253450e-01  8.73254612e-02
     2.27058474e-02  1.88680068e-01  8.76518860e-02  1.76719353e-01]
   [ 5.45476750e-02 -2.23003283e-01 -2.10505556e-02 -1.50112975e-02
    -3.00837934e-01  2.04892561e-01  1.24314286e-01 -1.49390385e-01
    -3.31394635e-02 -4.27272730e-03 -1.20058721e-02  2.94985268e-02
    -1.52911255e-02 -1.22908140e-02  1.05561778e-01  6.05518408e-02
     4.90896916e-03  1.14004910e-01 -2.45077871e-02 -1.44142389e-01
     3.09370250e-01 -1.17858574e-01  6.23202212e-02  9.30792466e-02
     1.31416172e-01 -1.30716398e-01  4.01919596e-02 -1.39614597e-01
     1.03534728e-01 -5.96730597e-02  2.96015859e-01 -1.97414681e-01
    -1.31769359e-01  1.73348486e-02 -7.84454215e-03 -7.31262863e-02]
   [-1.62100226e-01 -2.22632989e-01 -4.70710024e-02 -8.01094025e-02
    -1.58085555e-01 -2.77792457e-02  3.53185162e-02  7.19386935e-02
     2.66666919e-01  1.48488253e-01  1.03026532e-01 -1.36259198e-01
    -1.52424634e-01 -7.42029175e-02  8.77720714e-02 -6.60229325e-02
    -4.89620939e-02  2.34642718e-02 -1.69841781e-01 -3.50207612e-02
     1.97822582e-02  1.17117025e-01  2.79035755e-02 -5.13778925e-02
     4.38300222e-02  4.83202375e-03  8.58732089e-02  1.21728614e-01
     6.67936429e-02 -7.92655200e-02 -2.59292591e-02  1.03521235e-01
     2.74948683e-03  2.22544279e-02 -3.88780013e-02  4.52711657e-02]
   [ 2.83541828e-01  4.25923569e-03 -7.35103292e-03  1.64919607e-02
     5.14701083e-02 -1.16815455e-01 -3.08343563e-02 -3.83955389e-02
     6.76472336e-02 -9.42414403e-02 -6.18497841e-02 -2.36323729e-01
    -4.64230217e-02 -2.31110025e-02  3.37389037e-02 -1.34444222e-01
     3.02285794e-02  1.53485358e-01 -8.34416505e-03  1.02630928e-02
     7.15357587e-02  8.57615843e-03  4.09426093e-02 -2.65396554e-02
    -9.83929560e-02  1.09979764e-01 -1.64890289e-02 -3.76958102e-02
     2.19433814e-01  6.54316172e-02  4.79427464e-02 -9.19932872e-02
    -1.58973351e-01  3.26933861e-02 -9.38312858e-02 -5.45926727e-02]
   [-2.14683097e-02 -4.44623791e-02 -8.49565566e-02 -1.14264833e-02
     9.66879502e-02 -4.15896066e-05 -9.15590152e-02  9.25151408e-02
     1.45452112e-01 -3.86775434e-02 -4.19778228e-02 -9.36060101e-02
    -3.82520258e-02  6.43841624e-02  1.44717032e-02 -1.64953351e-01
     1.11988634e-01 -1.33236453e-01  1.01827003e-01 -3.39074135e-02
    -9.24780369e-02  6.71051024e-03 -8.17210376e-02 -1.13530926e-01
     8.08095336e-02  2.44892091e-02 -5.10641001e-02 -1.20472901e-01
    -4.22943868e-02 -2.00572386e-02 -1.36891425e-01  7.96480700e-02
     1.60647742e-02 -1.09860823e-01 -8.90488643e-03  1.28796011e-01]
   [-8.53095353e-02 -1.30156919e-01  1.76963657e-02  5.23827858e-02
     6.46029338e-02 -2.66774707e-02  6.05337881e-02  2.42063552e-01
     1.11147314e-01  4.75856997e-02 -7.94723164e-03  7.73217082e-02
     1.28946468e-01  1.32149532e-02 -2.10830539e-01  2.57917549e-02
    -6.31511509e-02 -1.68465804e-02 -1.20138600e-01  1.43783748e-01
    -1.75521076e-01 -1.80194199e-01 -1.04004182e-01 -3.38268317e-02
    -2.61513311e-02 -2.36294791e-02 -5.40716052e-02  2.39653774e-02
    -1.10244215e-01 -3.23857111e-03 -4.43817303e-02 -3.55055695e-03
     3.86818014e-02 -1.61872223e-01  1.91789970e-01  7.45667964e-02]
   [ 1.33589119e-01  2.04618216e-01 -1.46382535e-02 -1.14368223e-01
    -4.34109382e-02  1.04599454e-01 -7.46867880e-02 -1.71633035e-01
     1.75735414e-01  2.97151893e-01 -7.94983841e-03 -1.58544898e-01
     1.33324862e-01  3.66733521e-02 -3.87956277e-02 -1.38471752e-01
     8.68121609e-02  2.62505144e-01 -5.69821112e-02 -2.62358412e-02
    -2.14275554e-01  1.06901273e-01  6.34968877e-02  1.36323377e-01
     7.19219074e-02 -1.08321480e-01 -3.49744439e-01 -1.33702174e-01
    -8.16702005e-03  7.43259396e-03 -2.35209130e-02  9.21250060e-02
    -2.76047494e-02  8.84053782e-02  6.87801018e-02  6.07096665e-02]]

  [[-1.12310573e-01 -1.42192289e-01  1.02530308e-01 -1.20279267e-01
     4.30580080e-02 -1.24594197e-01 -4.19091545e-02 -6.14806935e-02
     5.16478047e-02 -2.27910876e-01 -5.79288229e-02  5.38565293e-02
    -5.86846359e-02 -2.79423650e-02  9.98151898e-02 -4.16550003e-02
     5.98401688e-02 -2.02432331e-02  7.83984810e-02  8.84208754e-02
    -2.47439638e-01 -1.11967169e-01 -2.88082480e-01 -9.49020609e-02
    -3.26356441e-02  9.33384225e-02  1.05803855e-01 -5.41048795e-02
    -2.93072015e-01 -5.82998693e-02  2.11529378e-02  1.78272948e-02
     4.91361246e-02 -2.21029576e-02 -1.57776177e-01 -7.04719946e-02]
   [-1.25183895e-01 -1.07006893e-01 -1.31192923e-01 -5.80752315e-03
     2.50026286e-02  1.35238200e-01 -3.31947803e-01 -4.15899828e-02
     1.05280258e-01 -7.23927766e-02 -8.00519139e-02 -9.50966552e-02
     1.36802211e-01 -7.67081305e-02 -1.60789281e-01  1.54919717e-02
     2.61797998e-02 -6.23040386e-02  4.82609449e-03 -1.60900801e-01
     9.97743458e-02  1.34855628e-01 -8.27352777e-02 -4.28884104e-02
    -1.37869194e-01 -1.68206632e-01  1.81891680e-01 -3.45761359e-01
    -4.52093743e-02 -7.39126503e-02 -2.72853971e-02  1.38040692e-01
     1.05124265e-01 -5.09425066e-02  2.22785264e-01 -2.72418503e-02]
   [ 8.83403234e-03 -6.07615784e-02 -5.41425571e-02  6.77716583e-02
     1.68132745e-02 -2.71515191e-01  1.27435565e-01  8.08201637e-03
     8.81363600e-02 -1.01187192e-01  1.38897032e-01 -5.17711788e-03
    -1.72749966e-01 -5.17276488e-02  1.70990497e-01 -3.71332688e-04
    -4.36246209e-02 -9.42793787e-02 -1.41983971e-01  8.52186456e-02
    -1.89134739e-02  2.46293649e-01  1.56252459e-01 -1.75446346e-01
    -8.02166760e-02 -1.43640503e-01  3.32605988e-02 -3.18438113e-02
     2.18453631e-01 -6.56366870e-02  4.38205749e-02 -4.81249765e-02
    -9.36876684e-02 -7.35267028e-02  3.43826003e-02  1.47998454e-02]
   [ 1.05758477e-02 -9.73876864e-02 -6.68697944e-03 -1.03539139e-01
    -3.35562468e-01  7.47228935e-02  4.99579385e-02 -4.68726791e-02
    -1.05500199e-01  5.48320040e-02  4.40001599e-02 -2.22905144e-01
    -7.19875172e-02 -2.15019718e-01  1.84178967e-02  3.53471525e-02
    -1.75722674e-01 -2.03468964e-01 -2.59114709e-02  5.21347933e-02
     1.96085200e-02  4.74397689e-02 -9.01696086e-02 -1.64610207e-01
     3.18853110e-02  4.01196349e-03  1.26771163e-02 -2.92083919e-02
    -1.22931905e-01  3.00685819e-02  9.23717022e-02 -7.42791146e-02
    -7.70363584e-02  2.96247508e-02  2.57921722e-02  5.10368720e-02]
   [-3.16926911e-02 -1.98851693e-02  5.52421808e-02  3.09727490e-02
    -1.87679842e-01  9.56231430e-02 -4.93448898e-02 -5.79750501e-02
    -1.50843889e-01  1.17424116e-01  1.47739425e-01 -1.28304139e-01
     1.90800913e-02  2.60371380e-02  6.64092973e-02 -2.76982337e-02
     5.05097583e-02  1.07149996e-01 -1.18791334e-01 -1.00820199e-01
    -1.76543832e-01 -1.40413120e-01 -1.84399024e-01  6.68200925e-02
     9.09498110e-02 -2.15048753e-02  6.72289506e-02 -1.36489049e-01
    -1.93936050e-01  1.27942786e-01  2.26553585e-02 -5.96554801e-02
    -1.02091052e-01  2.59689149e-03 -3.03062629e-02 -9.41514894e-02]
   [-1.13757901e-01  1.66549876e-01  1.65428579e-01  1.51924029e-01
    -5.56038879e-02 -9.60507244e-02 -7.59507194e-02 -3.68187912e-02
    -2.31782272e-01 -1.18637279e-01  1.66393936e-01 -9.81566310e-02
    -1.30519420e-01  1.30700335e-01  6.65959492e-02 -7.45117441e-02
    -1.03977963e-01 -4.49731536e-02 -9.42097902e-02  1.14247747e-01
    -1.64842024e-01 -3.26035112e-01 -6.88088685e-02 -2.57296884e-03
    -2.06043884e-01 -1.20045738e-02 -1.34772975e-02 -2.69804616e-02
     9.04774666e-02  3.69329331e-03 -1.12753130e-01 -1.70291245e-01
    -1.32467866e-01 -3.05334646e-02 -1.20267905e-01 -1.47249043e-01]
   [-1.33413106e-01 -2.58919671e-02 -9.24837030e-03 -9.72431079e-02
     3.14310826e-02  1.09705888e-01 -1.30752340e-01  1.09462485e-01
    -2.04878286e-01  5.53258248e-02  7.26273507e-02 -7.90884793e-02
    -1.10151293e-02  1.34668544e-01 -8.57837796e-02 -8.09410885e-02
     8.99566114e-02  8.15203786e-02 -1.45899221e-01 -1.67593285e-01
    -5.81836551e-02  1.42947426e-02  6.04574196e-02  3.04809422e-04
     4.62811254e-02 -5.44879846e-02  1.46647722e-01 -1.98549926e-01
    -4.09207381e-02 -1.23181656e-01 -9.92262363e-02 -1.15806714e-01
    -1.30518153e-01  6.66094422e-02 -2.38482594e-01 -1.16919525e-01]
   [-4.46309000e-02 -1.51444688e-01 -1.23338595e-01 -1.37010254e-02
    -3.57427411e-02 -6.05174825e-02  5.03138863e-02  2.51887031e-02
     1.79717004e-01 -1.76991820e-02  1.24067618e-02  1.91827975e-02
    -2.20659208e-02  4.77486402e-02 -7.94888437e-02 -1.81626920e-02
     1.62264004e-01 -1.12817541e-01  2.40611490e-02  4.93724123e-02
    -6.48015663e-02  2.34876573e-01 -1.20129734e-01 -4.36202623e-02
    -1.28627062e-01 -4.96180132e-02  5.37217036e-02 -1.27070844e-01
     3.63689326e-02 -7.20699281e-02 -7.98441097e-02  1.91818044e-01
    -1.54285002e-02 -1.40830427e-01  1.00079626e-02  1.22753140e-02]
   [ 3.12216282e-02 -2.33712077e-01 -1.19212113e-01  1.67314857e-01
    -1.07313827e-01 -4.50953469e-02 -9.84064937e-02  7.00483769e-02
    -8.50799605e-02 -9.14277136e-02  1.71875805e-01 -1.71406657e-01
    -1.08974256e-01 -8.10289942e-03 -7.55326599e-02 -4.33709249e-02
    -3.93648706e-02  1.57428405e-03 -7.48828810e-04  5.19113522e-03
    -9.83902961e-02 -1.12102412e-01 -1.43844157e-01  1.40529498e-01
    -8.94179568e-02 -4.43948135e-02  8.21290761e-02 -1.93804458e-01
    -2.48068608e-02  3.60788442e-02  9.82962102e-02 -2.92838186e-01
    -2.30787009e-01  8.51613060e-02 -1.65281802e-01 -6.79687038e-02]
   [ 1.29207492e-01  8.49609822e-02  1.28767207e-01  7.39863217e-02
     3.14792901e-01  8.34297016e-02  1.85143679e-01  1.88740835e-01
     1.90345839e-01  3.94185930e-02  5.31871766e-02 -8.49985853e-02
     4.10049222e-03  2.22345054e-01 -3.33484705e-03  2.13582590e-01
     7.57396445e-02  1.89224571e-01  1.83602005e-01  3.17052789e-02
    -2.37070327e-03 -2.89384350e-02  1.58977911e-01  7.79461041e-02
     1.09650970e-01 -5.72610693e-03  2.43070081e-01  9.71649513e-02
     1.87400013e-01  5.01363724e-02  3.08321919e-02  8.78929421e-02
     8.37504640e-02  1.52386352e-01  1.21538810e-01  1.42224878e-01]
   [-8.87701847e-03 -2.42632721e-02 -1.21593833e-01 -1.40085608e-01
    -1.15406357e-01  1.11007774e-02 -1.61666274e-01 -5.64661808e-02
     1.38007682e-02  1.25802919e-01 -5.20756468e-02 -1.90918550e-01
    -3.43773589e-02  1.85353868e-02 -2.07537234e-01  4.50225621e-02
    -2.21051395e-01 -3.09607442e-02  2.46019512e-01 -8.25584754e-02
    -1.06615975e-01 -5.90050742e-02 -1.47899345e-01  7.38666430e-02
    -1.63826272e-01 -1.64264381e-01  4.56177741e-02 -4.74792905e-02
     4.41656746e-02 -1.36312693e-01 -1.44675598e-02 -2.85506904e-01
    -5.95727339e-02 -1.76253356e-02  1.44641459e-01 -9.91236512e-03]
   [-1.31390750e-01 -2.77610302e-01 -4.36468385e-02 -3.47835739e-04
    -1.00182064e-01  2.02735886e-02  9.32103321e-02  8.62750933e-02
    -7.87659287e-02  1.56982347e-01  1.29589409e-01 -6.57191873e-02
    -4.73515503e-02  1.67613495e-02  1.43460194e-02  1.96501151e-01
    -1.56503513e-01 -5.67869507e-02 -1.79536954e-01 -1.75118834e-01
    -1.87316060e-01 -1.50038481e-01 -2.08415821e-01  6.99413046e-02
     1.61877379e-01 -9.08261016e-02  1.95859879e-01  1.10236118e-02
    -4.58991155e-03  7.38734985e-03 -4.84189950e-02 -5.20534553e-02
    -1.43761113e-01  1.74820926e-02 -1.03654839e-01 -4.19463068e-02]
   [-1.04239099e-02 -1.49174586e-01 -1.98990390e-01  5.00148023e-03
     5.35881780e-02 -2.18008012e-01 -3.04862875e-02  2.30830118e-01
     4.67507988e-02 -8.94284546e-02  5.87628745e-02  3.29139456e-02
     2.96094455e-02  8.14326629e-02 -1.43516501e-02 -1.31921396e-01
     1.60823330e-01  1.10553026e-01 -4.47599329e-02 -1.10088177e-01
    -7.16696680e-02  7.53845647e-02  1.50347250e-02  1.17744200e-01
    -1.07843600e-01  2.47097556e-02  1.39447469e-02 -2.24403292e-01
     5.63358143e-02  7.82865733e-02 -5.98994642e-02 -9.34032202e-02
     7.11427582e-03 -4.04515266e-02 -9.28286240e-02 -1.62156701e-01]
   [ 1.97241396e-01  1.46088153e-01  3.72064896e-02  8.34963750e-03
    -8.90604034e-02  3.24258991e-02 -2.60567442e-02 -2.83052269e-02
     8.05333853e-02 -1.24185428e-01  1.14779912e-01 -1.07543841e-01
    -1.94170669e-01 -4.32728007e-02 -5.23019023e-02 -9.91848856e-02
    -5.50463162e-02 -2.93425053e-01 -1.04251944e-01  2.61140138e-01
    -1.31385788e-01 -1.48623422e-01 -1.77492350e-01 -1.04908973e-01
    -3.29163484e-02 -2.62103472e-02 -1.80620074e-01  2.25631505e-01
    -1.42746940e-01 -7.64313564e-02  1.23812966e-01  2.04202384e-02
     2.09730312e-01  2.58185770e-02 -1.00273173e-02 -1.59624219e-01]
   [ 7.80404881e-02 -3.78507911e-03  1.10522442e-01  9.68526900e-02
     4.40913439e-02  5.54637052e-02 -3.64759564e-02 -1.83795523e-02
    -2.41118507e-03 -1.45940870e-01  4.61944193e-02 -9.33876783e-02
     3.54001336e-02  5.70254959e-02  1.42575637e-01 -5.68821318e-02
    -3.73460650e-02 -5.86485192e-02 -3.68972011e-02 -9.70683098e-02
    -2.08479892e-02 -3.13270055e-02 -1.55278042e-01  3.22026759e-02
    -3.16422544e-02 -4.39164862e-02 -8.67683068e-02  5.44986576e-02
    -1.50835827e-01  9.70809069e-03 -9.10145938e-02 -1.08193129e-01
    -7.45362192e-02  5.16566113e-02 -1.67837679e-01  2.21872143e-02]
   [ 1.93941653e-01  6.34809881e-02 -1.02257123e-02 -1.47457704e-01
    -4.19696309e-02  2.20227409e-02 -6.46496713e-02  7.37338373e-03
    -7.12434761e-04 -3.56889106e-02 -1.89447608e-02 -1.37866497e-01
     4.23360728e-02  8.77803117e-02 -8.04886818e-02 -6.26467392e-02
     4.79858881e-03 -8.50570500e-02 -1.85162500e-01 -9.59717780e-02
     1.86436772e-02  2.52330024e-02  5.37810810e-02  6.65846914e-02
     1.16880201e-01  5.65001890e-02 -2.68481761e-01 -4.50345362e-03
    -2.32709441e-02  1.06925532e-01 -8.15381259e-02 -4.59148511e-02
    -6.88981116e-02  2.28154838e-01  9.72999185e-02 -4.13877368e-02]]]


 [[[-1.03018247e-01  6.08418062e-02 -1.30683169e-01 -3.44383419e-02
     8.08900818e-02 -3.04060001e-02 -1.22902878e-01  5.67219518e-02
    -9.30781215e-02 -5.57714440e-02 -8.93418714e-02  5.03326654e-02
     4.15457450e-02 -7.52353342e-03 -1.08569920e-01 -3.94946896e-02
    -1.98525935e-02 -8.63883793e-02  5.24222516e-02  7.97048286e-02
    -2.06873473e-02  6.65776283e-02 -1.05818743e-02  7.70160928e-02
    -1.41084790e-01  5.99134378e-02  5.35053164e-02 -7.62251243e-02
    -9.88509953e-02 -1.76597252e-01  5.28702475e-02 -1.84829965e-01
    -9.91958454e-02 -1.10611767e-02  7.38955960e-02 -6.80602491e-02]
   [-8.03022683e-02  1.06020428e-01  8.47188085e-02 -2.58401148e-02
    -2.41076738e-01  1.66471094e-01  3.56845185e-02 -8.53945613e-02
     1.70811668e-01 -1.50434479e-01  8.45558792e-02 -3.78917046e-02
    -1.70396209e-01  1.13489427e-01  9.43754017e-02 -1.83557749e-01
     8.01894721e-03 -3.75254512e-01 -3.58912915e-01 -4.63409983e-02
     1.00082494e-01  2.37470977e-02 -7.11342171e-02 -3.37137058e-02
     8.67070481e-02 -4.49573882e-02 -1.23152703e-01 -1.43916592e-01
     1.82815671e-01 -1.24610461e-01  8.76175314e-02 -6.32233024e-02
     1.45671174e-01  1.81545675e-01 -3.09795346e-02  3.06614023e-02]
   [ 7.36741573e-02  4.71151099e-02 -3.74692753e-02 -1.18242703e-01
     2.12918490e-01  7.68514303e-03 -1.36564866e-01  9.59097892e-02
     1.61759093e-01  2.08481431e-01 -2.13900983e-01  4.09155822e-04
    -2.07277924e-01  6.61636218e-02  1.73000976e-01 -1.36167467e-01
    -1.90998912e-01  1.41695095e-02 -3.76517661e-02 -8.70601237e-02
     1.07839286e-01  4.03783470e-02 -1.23337276e-01 -6.75223395e-02
     1.24989282e-02 -2.65129167e-03 -1.12705529e-01 -2.48608515e-01
     1.24165803e-01  3.16161141e-02 -2.59170458e-02 -1.08333394e-01
     2.46633030e-02  8.72974470e-02  3.77078950e-02  9.61291343e-02]
   [ 1.12695336e-01 -1.08062632e-01  1.35718614e-01  9.74457059e-03
     9.17414483e-03  3.68800238e-02 -6.70352113e-03 -3.03837121e-01
    -4.39873748e-02 -4.80411910e-02  5.55395000e-02  2.16110110e-01
    -2.42938474e-02  6.59352913e-02 -8.20726305e-02 -1.77546144e-01
     1.79024320e-02  2.35888399e-02 -2.58410096e-01  4.09751050e-02
     6.94039464e-02  6.18529022e-02  1.39894634e-01 -8.87695625e-02
     7.22271800e-02 -1.36067137e-01 -9.70514193e-02  2.20915414e-02
    -1.56691626e-01 -1.05885856e-01  1.46488205e-01  1.31399617e-01
     7.95311779e-02  1.52380317e-01  9.13291499e-02 -2.90727746e-02]
   [-6.49820268e-02  2.24996991e-02 -3.88141014e-02  4.58874591e-02
     5.70584089e-02 -1.29968673e-01 -1.21348254e-01 -7.58937225e-02
     8.99034590e-02 -1.64805382e-01 -5.65803610e-02  2.80619740e-01
     1.87131658e-01  2.11372282e-02 -1.13454953e-01  3.99879478e-02
     1.02014922e-01  1.22796007e-01 -2.14473188e-01 -1.42498314e-02
    -5.91722280e-02 -6.35496005e-02  1.66918054e-01 -5.02590165e-02
     1.36694416e-01 -1.60180628e-02 -7.05601200e-02  1.44142255e-01
    -1.79809198e-01 -2.30372131e-01  5.93259698e-03 -5.15193194e-02
     6.82090446e-02  7.24554434e-02  1.09933347e-01  4.63521853e-03]
   [ 2.22705945e-04 -1.01849083e-02 -1.81689858e-01  7.35390186e-02
     1.52286291e-01  1.53148681e-01  3.76967788e-02  6.21689335e-02
    -2.49932379e-01 -1.08252898e-01 -1.36475518e-01  3.20048407e-02
    -2.06044078e-01  1.78168225e-03 -1.45069897e-01  2.19709445e-02
    -2.04476565e-01 -1.36064246e-01  3.07845734e-02 -1.49355859e-01
    -1.61617368e-01 -1.13773145e-01 -1.92694619e-01  4.21257764e-02
     1.97639167e-02  5.72769381e-02 -3.21110561e-02 -1.20658912e-01
     3.98724861e-02  1.56597182e-01 -2.42226020e-01 -1.31732389e-01
     7.93428794e-02  3.53335887e-02  2.99985218e-03 -2.83055026e-02]
   [-5.61929457e-02  1.26305699e-01 -2.02989593e-01  5.97570017e-02
    -6.78787157e-02  4.47861888e-02 -1.39995262e-01  1.06594443e-01
    -4.29209135e-02 -4.18103905e-03 -1.41423941e-01  1.36256292e-02
     1.01284564e-01 -1.09387137e-01 -1.29297972e-01  1.88728794e-02
    -1.93679705e-01  1.50702456e-02 -2.69548357e-01  3.57514843e-02
     5.31852245e-02  1.65894836e-01 -1.05356671e-01  6.20276891e-02
     9.77037288e-03  8.35169256e-02 -1.74057931e-01 -1.32432496e-02
    -1.49236083e-01 -6.29587797e-03 -1.90864071e-01 -2.28017364e-02
    -1.80849075e-01 -1.68992549e-01  8.70667547e-02 -5.39974794e-02]
   [-1.15358546e-01 -4.86036167e-02 -6.02829345e-02 -1.89852461e-01
    -1.30922589e-02 -1.45964976e-02 -1.84210315e-01  8.33758637e-02
     4.82963063e-02 -2.42076290e-04 -1.65334955e-01  1.51063591e-01
    -1.73716784e-01  7.67206475e-02  9.66946036e-02 -2.07261872e-02
    -1.36638179e-01 -6.07563108e-02 -2.28343010e-02 -2.44375877e-02
    -5.91458119e-02 -1.51203021e-01 -4.45472822e-02  8.16248581e-02
    -8.53815004e-02 -1.18420109e-01  1.58065215e-01 -9.81411263e-02
     4.21432741e-02 -1.16926655e-01  1.02049582e-01 -1.45726586e-02
    -1.13906689e-01 -4.79067750e-02  1.21229179e-01 -5.70613146e-03]
   [-1.74139023e-01  1.21858180e-01 -1.72895893e-01 -6.67876601e-02
    -2.67572850e-01 -1.74995080e-01 -7.91960657e-02  8.33787769e-02
    -1.53772548e-01 -1.97488461e-02 -3.73906195e-02  1.54130638e-01
     7.49237910e-02  2.69786976e-02 -1.73491493e-01 -3.01253749e-03
     1.67082369e-01  9.90511701e-02 -6.80898279e-02  1.27075851e-01
     9.22030881e-02 -7.92806000e-02  2.53092200e-02 -1.73237681e-01
    -1.72627438e-02  1.40033513e-01 -4.78266589e-02  2.25619581e-02
    -8.83619413e-02  6.21363968e-02 -8.43288824e-02 -8.87782872e-02
     5.12476861e-02 -5.44754751e-02 -5.92076927e-02 -1.67200163e-01]
   [ 2.83382535e-01  1.15876663e-02  1.22966759e-01  1.81376740e-01
     3.61253947e-01  6.29455522e-02  1.31319344e-01  2.09460884e-01
     9.00475681e-02 -5.97548969e-02  2.69097775e-01  3.23700979e-02
     3.82304080e-02  1.78588867e-01  3.29716690e-02  3.05924535e-01
     2.62675434e-01  3.19640636e-02  1.38402045e-01  1.59695387e-01
     5.67123070e-02 -3.87989804e-02  1.95673462e-02  2.34840393e-01
     1.76330939e-01  9.41656455e-02  1.91614971e-01 -2.12481804e-02
     8.96905884e-02 -1.31590217e-01  1.94928199e-02  8.08584765e-02
     2.75614467e-02  3.00521523e-01  2.04589233e-01  1.88737452e-01]
   [-7.96331167e-02  8.12562369e-03  1.57077789e-01  4.11560424e-02
    -1.00124627e-01 -1.66512042e-01 -1.56778440e-01 -1.57606259e-01
    -2.16635451e-01  2.62851715e-02  3.13763097e-02 -2.42048241e-02
     9.54648294e-03 -1.27103016e-01 -1.35935351e-01  8.18917900e-03
     1.80710003e-01 -1.35191875e-02 -9.31106731e-02 -7.89492279e-02
     5.70412204e-02 -1.56662151e-01  5.55289239e-02  1.77896187e-01
     9.12265927e-02  4.09719199e-02 -1.24835037e-01 -8.91494974e-02
    -1.03260152e-01  6.95107803e-02 -7.07020089e-02 -1.01917781e-01
     1.61467046e-01  1.46172807e-01 -1.21080019e-01 -7.74313323e-03]
   [ 1.01833753e-01  9.11567360e-02  1.52100712e-01  2.11670443e-01
    -1.96464807e-01 -2.00961083e-01 -9.25068259e-02 -2.23299488e-01
    -5.06133065e-02 -1.13497943e-01  1.50254160e-01  1.05326749e-01
     1.91691697e-01 -3.47577296e-02 -1.51983187e-01 -1.11143745e-01
     2.64277495e-02  2.01629132e-01 -1.85483366e-01  3.50705674e-03
    -4.14378978e-02  1.62770301e-01  2.74891574e-02 -1.67364299e-01
    -3.45718712e-02 -1.09569155e-01 -1.62454229e-02  1.20830938e-01
    -2.22087756e-01 -9.51200575e-02  8.25524032e-02  1.42928034e-01
     1.39748394e-01  1.30913526e-01 -1.47127896e-03  2.39123069e-02]
   [-1.66607156e-01  1.93631411e-01 -1.75853819e-01 -1.66596219e-01
    -9.95125696e-02  7.04806596e-02  1.80615969e-02  2.91638151e-02
    -1.78663135e-01  3.36288521e-03  1.72556099e-02 -1.65579349e-01
    -6.31718114e-02 -7.18687847e-02 -1.32701814e-01  2.28270907e-02
     9.21118557e-02 -7.30222613e-02 -2.42107525e-01  2.78248843e-02
     4.73122783e-02 -4.26701503e-03 -3.04197930e-02  3.44238654e-02
    -7.28231249e-03  5.96449599e-02 -1.81378737e-01  1.56791598e-01
    -1.05023399e-01 -1.18742600e-01  4.89102080e-02 -1.31204769e-01
    -1.55868962e-01 -2.18323879e-02  1.45220891e-01 -1.64032936e-01]
   [-9.15853009e-02  2.95854900e-02  1.24133369e-02 -4.08191159e-02
    -7.15155974e-02  5.83094964e-03 -1.64839402e-01 -9.30264816e-02
    -8.91319588e-02  8.11428018e-03 -9.03572509e-05  2.44075917e-02
     1.17882431e-01 -5.23465462e-02 -1.86239973e-01  2.46895645e-02
     5.75764617e-03 -3.36340815e-02  9.48782563e-02 -1.17560431e-01
    -2.81776153e-02  8.69536325e-02 -1.27711460e-01 -4.73180264e-02
    -2.46168718e-01  8.98421705e-02 -5.23987412e-02 -2.43206665e-01
    -1.21891394e-01  1.41081423e-01  2.97441054e-02  1.72386281e-02
    -1.52734280e-01 -3.41090858e-02 -1.49488822e-02 -1.28395520e-02]
   [ 1.33005783e-01 -8.70243087e-02  6.92756614e-03 -6.09999076e-02
     1.47870034e-01 -9.26804245e-02 -1.77709177e-01  2.81572919e-02
     1.50226325e-01 -4.99924794e-02 -1.12960242e-01 -1.59593329e-01
    -1.18594758e-01  1.30648002e-01 -1.16387866e-01 -4.91950102e-03
    -5.98823018e-02 -8.46759528e-02  8.88789669e-02  4.77639306e-03
     1.03991538e-01 -1.38868362e-01 -6.05110005e-02  2.39544492e-02
     2.34738900e-03  7.28676617e-02  7.14400336e-02 -7.01639429e-02
    -1.64331142e-02 -3.04060020e-02 -1.50670066e-01 -7.58161023e-02
    -1.90700203e-01  5.33506423e-02  1.82279050e-01  6.09182268e-02]
   [-1.22390844e-01  6.81878254e-02  1.79835021e-01  6.81773527e-04
    -2.31574386e-01  6.39891028e-02 -1.28748834e-01  5.81847876e-02
    -8.60923827e-02 -1.51157781e-01  1.82957556e-02 -1.25166073e-01
     9.14442018e-02 -2.24416256e-01  1.89269502e-02  4.06897776e-02
     2.08183423e-01  1.21309027e-01  4.42195050e-02  2.49048714e-02
     1.70573536e-02 -8.99070576e-02  8.03298652e-02  8.19577090e-03
     1.60800651e-01 -9.35715809e-02 -5.75324520e-02 -6.76485971e-02
    -2.04386413e-01  1.33358419e-01  2.46348139e-02 -6.70030713e-02
    -8.61673728e-02 -2.19099857e-02  4.36760895e-02  1.18256494e-01]]

  [[ 3.78712118e-02 -1.57478973e-01 -4.72347587e-02  4.66533983e-03
    -7.89282247e-02 -3.35018989e-03 -1.48466155e-01 -8.92344266e-02
     2.48127058e-02  3.66978124e-02 -3.60318995e-03  4.53681201e-02
     1.68239325e-02  1.33637944e-02 -5.55293113e-02  2.10700054e-02
    -1.25471249e-01 -4.17345352e-02 -1.31098954e-02 -1.33896843e-02
     1.29418150e-01  6.49004355e-02 -9.95907634e-02 -1.62940454e-02
    -1.68921396e-01  8.96296725e-02 -3.99771780e-02 -9.44124907e-02
    -1.44857302e-01  9.45434731e-04 -7.25764665e-04  3.34617458e-02
    -3.60597973e-03 -2.20015272e-01 -1.78975075e-01 -1.33051351e-01]
   [-1.09011933e-01 -7.32134357e-02  1.24148346e-01 -6.66990057e-02
    -2.40205109e-01  1.15678273e-01 -1.91261813e-01 -1.43245205e-01
     1.27823070e-01 -4.57320400e-02 -8.07775185e-03 -4.58918512e-02
    -5.02517745e-02  2.21763611e-01 -2.25193948e-01 -1.37350589e-01
    -1.57691389e-01 -5.07319309e-02  3.61690782e-02 -4.54119556e-02
     1.04445644e-01 -1.60842359e-01 -1.90233197e-02  1.65262166e-02
    -8.30279365e-02 -1.13098793e-01 -2.54010111e-02 -2.18089312e-01
     1.37314558e-01  2.21799523e-01  2.05882639e-02 -8.64321738e-02
    -9.58449244e-02  9.01640579e-02  1.92302298e-02  1.99240792e-04]
   [ 4.08532992e-02 -7.39112124e-02 -2.39941135e-01 -1.57424405e-01
    -1.59648225e-01  8.70813578e-02  1.30720794e-01 -6.67167753e-02
     2.78877616e-01  1.38274983e-01 -5.79951331e-02 -1.47864416e-01
     6.68271333e-02 -2.26562768e-02  9.71704274e-02  1.24860391e-01
    -9.16815326e-02  1.18055254e-01 -6.48589879e-02 -1.06826253e-01
     6.03642166e-02  2.63233576e-03  7.31482133e-02 -8.68555531e-02
     7.27719441e-03 -5.01521267e-02 -9.59596317e-03 -5.30134253e-02
    -2.87728291e-02 -1.98534518e-01  9.65376049e-02  1.18053555e-01
    -7.26828426e-02  1.99507624e-02 -7.76520818e-02 -3.24199395e-03]
   [ 1.18817516e-01 -4.55383398e-02  1.47194371e-01 -6.39714301e-03
     1.08815972e-02  1.48281097e-01 -5.44585213e-02 -9.39023122e-02
     5.11539020e-02 -2.96678524e-02  6.33233860e-02  1.16744868e-01
    -7.85023943e-02 -2.39511821e-02 -1.45604545e-02 -7.52134919e-02
    -2.13625550e-01 -5.56690469e-02  5.36666177e-02  5.28461188e-02
     1.60327211e-01  1.38621345e-01 -6.25693575e-02 -9.62620080e-02
     6.94777071e-02 -1.38370186e-01  9.69402865e-02  9.23569426e-02
    -1.44170433e-01 -1.23105934e-02  4.89371158e-02 -2.68579535e-02
    -1.10613652e-01  1.55155063e-02 -4.31011319e-02  1.05546035e-01]
   [ 1.62443221e-02  3.67768295e-02  1.23163201e-01 -2.55165622e-02
     2.68997299e-03  5.52589297e-02 -1.33054063e-01  9.15943906e-02
     1.07357934e-01 -7.17249289e-02  6.48949295e-02  1.23879388e-02
    -6.25148267e-02 -7.32502481e-03  1.73904910e-03 -1.18873082e-02
    -1.00069091e-01  5.46196066e-02  5.85918240e-02 -4.86262478e-02
    -8.06458369e-02 -4.93286066e-02  1.77351870e-02  1.45392522e-01
     1.35077789e-01 -9.04537644e-03 -3.52277420e-02  5.51049523e-02
    -1.90714002e-01 -5.97027577e-02  1.68703213e-01 -9.96613801e-02
    -1.04374379e-01  1.17217772e-01  7.10779009e-03  5.45042716e-02]
   [-1.58596665e-01  7.03550293e-04 -1.59970433e-01 -8.19680989e-02
     8.84002075e-02 -8.83986950e-02 -1.55725360e-01  5.68066016e-02
    -6.24773838e-02 -2.57727746e-02 -5.67058176e-02 -7.65491053e-02
     7.02554286e-02 -1.08500823e-01  2.39641801e-01  1.69896558e-01
     2.93328818e-02  6.13698997e-02 -1.04616433e-02 -3.10595036e-02
     1.80291701e-02 -1.54282689e-01 -2.53682919e-02  2.92969886e-02
    -9.42414626e-02 -1.27804413e-01  1.06880930e-03 -1.39156906e-02
    -7.39479624e-03 -1.49961766e-02  1.21753193e-01 -1.44923553e-01
     2.86199320e-02  8.16841498e-02  1.91956460e-01 -6.15746863e-02]
   [-1.64750606e-01  8.10908973e-02  6.04612678e-02 -1.45093754e-01
     1.81457818e-01 -5.45384772e-02  1.02538854e-01  9.77633893e-02
    -6.65819645e-02 -6.61387295e-02 -6.36410937e-02 -6.68482408e-02
    -1.61377758e-01 -1.08939901e-01  1.67240053e-01 -1.73764959e-01
    -1.49964362e-01 -3.84907275e-02 -4.79797982e-02  1.15378149e-01
    -1.57805771e-01  1.00138664e-01 -2.32835021e-02 -1.26527734e-02
    -1.39252290e-01 -1.19320629e-02 -8.18034261e-02 -5.82741573e-02
    -2.50104666e-01  3.83707136e-02  5.45111485e-02 -1.07641347e-01
    -2.21038610e-01 -5.51468208e-02 -9.90459621e-02 -1.13053218e-01]
   [ 5.89736328e-02 -1.63836598e-01  1.45264217e-04  1.42204361e-02
    -1.29045427e-01  1.05537958e-01 -1.55531541e-01  7.76460543e-02
    -9.16052833e-02  1.08377740e-01  5.70327835e-03 -1.06149308e-01
    -7.44323106e-03  4.00965475e-02 -4.31075692e-02 -2.50654947e-02
     5.71166463e-02  7.33797401e-02  8.07141513e-02 -1.58015922e-01
     8.33199248e-02 -1.54713869e-01 -1.43976510e-01 -7.05592409e-02
     5.03810216e-03  2.03278046e-02  3.66834998e-02 -7.63176382e-02
    -1.14429854e-01  3.37902978e-02 -3.53998318e-02 -5.04099317e-02
    -2.63798863e-01 -6.12902045e-02 -2.39329506e-02 -8.14205036e-02]
   [-2.86624074e-01 -1.12602331e-01 -9.05231088e-02 -1.95593521e-01
     6.57651424e-02  1.10779352e-01  9.33877155e-02  8.11279342e-02
    -2.23326698e-01 -1.05512097e-01  1.05412222e-01  1.01774253e-01
    -9.83934700e-02 -1.72124773e-01 -6.77824393e-02  4.40730788e-02
    -1.60097942e-01  1.36105031e-01 -1.88754685e-02 -2.26667989e-02
     4.95344698e-02 -1.22542739e-01  2.39593416e-01  3.67737561e-02
    -1.06817298e-01  1.83623537e-01 -1.55256279e-02 -7.80041441e-02
    -1.60116293e-02 -2.80215722e-02 -4.62480411e-02 -1.66399032e-01
    -3.44250426e-02 -5.56408130e-02 -1.79393172e-01 -3.33780982e-02]
   [ 1.73021257e-01  6.03037961e-02 -1.97279677e-02  9.88701656e-02
     2.53968388e-01  1.50677517e-01  9.93658304e-02  3.53121579e-01
     8.89890194e-02  7.37081561e-03  2.86183417e-01  2.88563818e-02
     2.13534221e-01  1.56122521e-01 -8.13081488e-02  2.86389023e-01
     1.32001460e-01 -3.01616639e-03  1.13967896e-01  1.83214229e-02
     2.78133191e-02 -4.57687899e-02  8.31627250e-02  4.00865227e-02
     8.66361186e-02 -1.00867860e-01  8.83702412e-02  2.87802406e-02
     1.67563885e-01 -3.45273018e-02  3.82827893e-02  1.33958787e-01
     2.35057436e-02  2.04866886e-01  1.72841892e-01  3.00722063e-01]
   [-6.67851651e-04 -6.49701655e-02 -7.96876550e-02 -7.18924799e-04
    -4.35133018e-02 -2.98374835e-02 -1.06615320e-01  5.15339039e-02
     2.52415612e-02 -1.03198469e-01  6.84062839e-02  9.29654762e-02
    -2.64581501e-01 -3.02941613e-02 -6.50477130e-03  1.21439546e-01
     1.50395572e-01  3.93824987e-02 -1.63238719e-02  9.42217037e-02
     7.23186508e-02 -9.89838839e-02  9.88795087e-02 -1.76183015e-01
    -5.53987585e-02  2.66830117e-01  7.48658031e-02  7.24638030e-02
    -7.80771151e-02  3.23461652e-01 -5.11483476e-02 -2.01794907e-01
    -4.48676310e-02  7.67310634e-02 -1.14030316e-01 -1.30210474e-01]
   [ 1.55055761e-01 -9.26699415e-02  5.74587211e-02  1.48740232e-01
     4.02799286e-02 -7.91990608e-02 -9.87913311e-02  1.55042559e-01
    -9.21673924e-02 -7.41237551e-02  2.66887266e-02  8.43455568e-02
    -1.28161356e-01  1.23317353e-01 -4.10238579e-02  1.60472304e-01
    -7.95433372e-02  1.12956420e-01 -1.77400649e-01  1.16422139e-01
    -3.88699770e-02  1.23073980e-01  6.42194599e-02 -1.78822443e-01
     1.77099094e-01  8.45555887e-02  6.23349659e-02  5.81127256e-02
     3.20906155e-02 -1.40959352e-01  4.43209670e-02 -9.11592618e-02
    -1.23864628e-01  5.14701824e-05  1.09826103e-01  1.50351569e-01]
   [-1.94455415e-01  1.17943786e-01 -5.30485958e-02 -1.87321931e-01
    -5.44839576e-02 -2.99497414e-02 -7.25653693e-02  5.81627712e-02
    -1.25872195e-01 -4.04163301e-02 -1.06041744e-01 -8.55369270e-02
     9.26540866e-02 -9.30944085e-02 -1.46487772e-01 -6.50630798e-03
     1.59501913e-04  4.26057093e-02  1.31720593e-02 -5.85896857e-02
     5.08820005e-02 -1.58082783e-01  1.00184739e-01  2.08977774e-01
    -6.34788126e-02  5.20232581e-02 -8.26427191e-02 -2.41930932e-02
    -1.23303086e-01 -3.23141702e-02  3.15187685e-02 -1.36256352e-01
    -1.90380961e-02 -3.01922709e-02 -1.21298507e-01 -2.65915811e-01]
   [-8.46601501e-02 -1.51313856e-01  7.26258606e-02 -7.38443807e-03
    -4.05633934e-02 -8.50755125e-02  5.78356013e-02 -1.61968186e-01
     7.89072514e-02 -8.96606296e-02  1.37263954e-01 -1.66714147e-01
     2.11238675e-02  1.79212205e-02 -1.28532633e-01  1.74996838e-01
     1.49411231e-01 -2.46133670e-01 -2.17026006e-02 -6.03162497e-02
    -1.05973549e-01  1.01967610e-01 -8.74990895e-02 -5.53777590e-02
    -8.68507922e-02 -1.19364358e-01  8.30503777e-02 -8.55159946e-03
    -6.82172105e-02  8.40149522e-02  5.05681988e-03 -1.06296949e-01
     1.62671909e-01 -2.07520619e-01  6.90740049e-02 -1.11680992e-01]
   [ 3.73856761e-02 -1.39148589e-02  7.97080696e-02 -1.57602161e-01
    -7.84989726e-03 -4.68853191e-02  7.77390674e-02  3.41473147e-02
     2.17952300e-02 -1.39487952e-01  8.79059881e-02 -7.25102574e-02
     1.53900087e-01 -3.43736559e-02  2.90615618e-01  1.25174358e-01
     9.58704129e-02 -1.47933796e-01 -7.54053444e-02 -3.95180508e-02
     3.12064271e-02 -7.69672394e-02 -7.13373497e-02 -3.71561684e-02
    -6.91414028e-02 -1.99201062e-01  9.98425111e-03  4.07289201e-03
    -9.05957669e-02 -3.44910696e-02  9.10208300e-02  3.33856568e-02
    -1.22190319e-01 -9.65784770e-03  6.08236305e-02 -4.17419970e-02]
   [-3.48098762e-03  2.23921150e-01  2.28055865e-01 -9.35293511e-02
    -7.05668256e-02 -5.13490774e-02 -5.58497794e-02 -3.91872041e-02
    -5.54570444e-02 -1.38150662e-01  1.96632847e-01  4.37626941e-03
     1.11012183e-01  1.01023585e-01 -1.38852894e-01  1.55545041e-01
     1.68388605e-01 -9.70145389e-02  1.08482212e-01 -6.33634478e-02
     5.89210615e-02 -1.17647462e-01 -1.37554988e-01 -9.44800954e-03
     7.21409470e-02 -1.82021335e-01  5.13689518e-02 -8.64994600e-02
     1.31324351e-01  7.68465400e-02  7.85700902e-02 -1.32625056e-02
    -1.04844235e-01 -3.33657935e-02  1.09762317e-02  1.56740367e-01]]

  [[-1.98206548e-02 -1.19701363e-01 -4.02000956e-02  1.03409030e-01
    -2.80099418e-02 -4.17701788e-02  6.72407150e-02 -8.24988633e-03
    -7.12257624e-02 -1.36859775e-01 -2.28444427e-01 -1.35285094e-01
    -4.57758047e-02  3.79058868e-02 -3.92546095e-02 -6.78109154e-02
     3.04143950e-02 -1.58219844e-01  1.48077890e-01  1.42665923e-01
     4.73895706e-02  2.83700600e-02 -5.86225428e-02 -8.63551497e-02
    -5.50849661e-02  3.83062065e-02 -1.00471757e-01  1.24870576e-01
     7.74584338e-02  3.11713833e-02 -5.38404696e-02  1.60249591e-01
    -8.19806755e-02 -9.04820710e-02 -5.22588491e-02  6.87923729e-02]
   [-7.05592558e-02 -2.25762174e-01 -1.41152069e-01  1.35023639e-01
    -8.19297358e-02 -5.19180447e-02 -2.77324855e-01 -1.39729318e-03
     1.43864498e-01 -2.82497164e-02  8.61338899e-03 -2.40342364e-01
     2.37421840e-01  1.70703799e-01 -1.71060696e-01  1.55033581e-02
     1.25522166e-01 -3.77679989e-02  9.42109711e-03 -1.77186966e-01
    -1.28552064e-01  7.04093054e-02 -1.84509739e-01 -7.25959316e-02
    -5.72217368e-02  8.51228982e-02 -1.30296154e-02  1.45693645e-01
     1.62741780e-01  1.05462208e-01 -5.57673797e-02 -1.37765571e-01
    -1.03448570e-01 -1.04142688e-01  1.18988007e-01 -2.55913772e-02]
   [ 4.34321128e-02  1.05027236e-01 -1.50895640e-01  5.27316853e-02
    -2.37699188e-02  1.09021060e-01  7.29632676e-02  7.93504179e-04
    -1.65850744e-01  1.88966766e-01 -4.09387909e-02 -2.19067395e-01
    -1.09620184e-01  1.64641559e-01 -1.34438248e-02  2.22435296e-01
    -1.15646884e-01  1.50663614e-01 -3.36055130e-01 -1.49496749e-01
     1.00904644e-01 -6.61047325e-02  8.11783895e-02 -8.08220506e-02
     2.56734878e-01 -1.71317935e-01  1.49380118e-01  3.10229715e-02
    -7.29790404e-02 -1.88821644e-01 -1.78985611e-01  5.16192727e-02
    -1.25512034e-01  7.29382131e-03 -1.29529983e-02 -1.44793198e-01]
   [ 6.05855696e-03 -2.07126498e-01  3.55203971e-02  8.99319053e-02
    -1.62289113e-01 -9.93667543e-03 -1.33743612e-02  2.12430079e-02
     4.40512262e-02 -1.10747084e-01 -8.82735401e-02  7.16773570e-02
    -5.49269505e-02  1.12147070e-01  1.10195123e-01 -3.95956933e-02
     2.33031716e-02 -2.44295940e-01 -4.22445163e-02  5.42796589e-02
    -1.10742092e-01  1.06568158e-01 -1.72100201e-01 -1.89000323e-01
     3.12686600e-02 -1.04802035e-01 -1.66819394e-02 -6.15375116e-02
     7.18850791e-02  1.13293327e-01 -1.70052633e-01 -1.70821622e-01
    -1.84632331e-01 -5.16448058e-02 -2.08647680e-02  2.04895988e-01]
   [ 5.93126900e-02 -1.20820604e-01  8.03244486e-02  1.55762807e-02
    -5.82788065e-02 -2.02264741e-01 -3.26132104e-02 -3.83097865e-02
    -2.25608761e-04 -1.45070657e-01 -6.09507039e-03 -6.34578988e-02
     1.26337884e-02 -1.15314111e-01  7.96673372e-02  7.78189674e-02
    -9.75577831e-02 -6.56523854e-02  7.71486387e-03  1.21436238e-01
    -7.69194067e-02 -1.30022854e-01 -1.83396131e-01 -7.81570524e-02
    -9.41735059e-02 -9.91094112e-02 -8.91231373e-02  9.01892111e-02
    -2.01350152e-02  8.55861753e-02 -3.90697643e-02 -6.54380322e-02
     4.45027240e-02  1.12954490e-01  8.21384266e-02  1.74817428e-01]
   [-9.85964909e-02 -3.48358043e-02 -2.09111258e-01 -2.80027658e-01
     2.37962808e-02  1.95763379e-01  1.47865668e-01 -9.51842293e-02
     2.82355025e-02 -8.94641280e-02 -6.78087026e-02 -1.11046210e-01
     9.22083631e-02 -9.30926763e-03 -5.80534339e-04  9.43272635e-02
     7.77954236e-02 -9.52502266e-02  2.45263055e-01 -6.17639013e-02
     6.71134293e-02 -2.33333603e-01 -9.30931121e-02  3.19576217e-03
     3.05425953e-02 -1.62553951e-01 -1.25329331e-01  9.01641995e-02
     1.27652034e-01 -6.27346709e-02 -5.82644194e-02  1.33981332e-01
     1.35002304e-02 -2.92676330e-01  1.68373793e-01 -9.85324681e-02]
   [-1.59264207e-01 -1.16604656e-01  6.22628145e-02  6.14720546e-02
     1.34891681e-02 -6.37748539e-02  1.47751480e-01 -1.20813467e-01
    -8.84060934e-02 -6.68206736e-02  1.97936129e-03  1.26231937e-02
     7.32375830e-02 -1.79600045e-01  1.25511408e-01  2.14351844e-02
     9.98769179e-02 -2.07683533e-01  1.41179144e-01  4.48461249e-02
    -6.11884519e-02  6.86227009e-02 -1.67357191e-01  5.04149161e-02
    -7.08749145e-02 -7.26219192e-02 -1.33633554e-01 -1.34173602e-01
    -1.98138654e-02 -5.19324318e-02 -2.63418883e-01 -6.66628554e-02
    -6.27714917e-02  2.65999176e-02 -7.22110346e-02  1.03491597e-01]
   [-6.24612682e-02 -1.04901314e-01 -5.02237752e-02  3.88211720e-02
     5.61316535e-02 -2.70124413e-02 -5.84058873e-02  1.15271816e-02
    -1.04515731e-01 -2.98355520e-03 -6.88209683e-02  6.33560792e-02
     1.90064102e-01  6.38697073e-02  1.44502565e-01 -7.06753805e-02
     1.40502140e-01 -5.67121096e-02  6.40827417e-02  4.47473563e-02
     5.48158474e-02 -1.11985944e-01 -1.73535496e-01 -8.82067531e-03
    -3.05618607e-02  4.94425073e-02  7.68210068e-02  5.84567189e-02
    -4.61640321e-02  7.90178627e-02 -4.99954820e-02 -1.46267042e-01
    -4.64021116e-02 -3.60102467e-02 -8.52544159e-02 -6.48485646e-02]
   [-5.16147241e-02 -2.00060487e-01  1.31202906e-01  3.04301139e-02
    -7.30203539e-02  8.89723375e-03  1.20115988e-01 -1.18620262e-01
    -1.32622004e-01 -1.07748576e-01  1.45428814e-03 -5.80668040e-02
    -9.77996066e-02 -2.09122211e-01  2.03560218e-01 -2.17822269e-02
    -1.58802330e-01 -1.18550450e-01  4.12584096e-02  3.47327515e-02
     3.69425886e-03 -1.08273052e-01  1.05917798e-02 -6.80049360e-02
    -1.01728318e-02 -6.37619151e-03 -4.56951782e-02  1.10403098e-01
     2.52548116e-03 -4.21647243e-02 -1.84211701e-01 -1.32140234e-01
     1.05351780e-03  4.00405861e-02  4.63227741e-02 -1.09191708e-01]
   [ 1.55671015e-01 -4.22641933e-02  7.26607740e-02 -1.14101179e-01
     2.82149971e-01 -3.24579850e-02  8.60368758e-02  3.21836710e-01
     2.26929281e-02  8.02912489e-02  8.63604397e-02 -1.04641151e-02
     1.77896395e-01  1.87971503e-01  7.58544505e-02  1.74207032e-01
     1.65825933e-01  4.20960300e-02  1.05062738e-01  2.06220314e-01
     1.23860789e-02 -1.11896418e-01  1.55847073e-01  1.65792882e-01
     2.36003891e-01 -5.90390339e-02  2.05719471e-01  5.89402616e-02
     1.75357983e-01 -4.81684357e-02  7.16709122e-02  2.36464992e-01
     2.31008455e-02  2.00236037e-01  1.86905533e-01  1.97700411e-01]
   [-3.86646390e-02 -8.04648101e-02  8.53234455e-02 -2.20250875e-01
     8.60339496e-03 -1.44679502e-01 -1.57758430e-01  7.93583542e-02
     4.32152823e-02  7.15939254e-02 -7.77763501e-02 -1.51010156e-01
    -4.44742702e-02  1.91323102e-01 -5.26200868e-02 -1.54594138e-01
    -1.15255296e-01 -9.25448388e-02  8.65447000e-02 -9.19738933e-02
    -6.77494556e-02 -1.09347649e-01 -3.08221169e-02 -8.46746936e-02
    -3.84238288e-02  1.16976336e-01 -3.42812151e-01  2.41141006e-01
     9.58271101e-02  8.59817341e-02  1.89452767e-02 -2.07142815e-01
    -1.00096092e-01  6.77795187e-02  4.65725102e-02 -1.66654915e-01]
   [ 3.65091041e-02 -1.44059166e-01 -1.60433073e-02 -6.06675558e-02
     6.56424165e-02 -1.10838927e-01 -6.30291319e-03  1.09928556e-01
     8.70504752e-02 -3.06675211e-02  2.43748035e-02  3.28876339e-02
    -1.70511603e-01  1.92639567e-02  4.41778935e-02  1.30182266e-01
    -1.59739539e-01 -9.09146369e-02  1.52630713e-02  1.48699224e-01
    -1.50331140e-01 -4.47926810e-03 -1.45078778e-01 -1.35722220e-01
    -2.82632913e-02  6.97092712e-02 -1.94236621e-01 -1.07064150e-01
     7.31565058e-02 -5.38541265e-02 -1.10824287e-01 -1.32948145e-01
    -2.45410688e-02  1.59631222e-01 -1.21848829e-01  2.04542354e-01]
   [-6.41817749e-02 -1.33690506e-03 -7.05278069e-02  1.27938345e-01
     1.22845963e-01 -2.36703344e-02 -3.98028595e-03  9.03322771e-02
     2.99619753e-02 -1.16827615e-01  5.05706407e-02  1.35362953e-01
     1.44689217e-01 -1.26878813e-01  4.76510599e-02 -1.23556033e-02
    -4.87136841e-02 -1.96229458e-01 -3.58520895e-02 -9.81307924e-02
     5.50173130e-03 -1.70798182e-01 -3.06974836e-02 -1.09037325e-01
    -1.72857732e-01 -5.25916070e-02  7.89003912e-03  1.00967087e-01
    -3.27994302e-02  2.19495017e-02 -1.57602161e-01 -8.96401703e-02
     2.05030993e-01 -6.80946782e-02  1.58292934e-01 -1.73153892e-01]
   [ 6.41892776e-02  1.38242513e-01 -1.39671341e-01 -8.99439026e-03
     6.27121702e-02  3.65319848e-02 -2.06884332e-02 -4.78462828e-03
     4.34241816e-02  4.18995917e-02 -1.00645162e-01 -1.60541758e-01
    -6.16517104e-02 -1.15081102e-01  8.44067782e-02 -2.46744305e-02
    -7.46015310e-02 -3.52796465e-02 -1.15985297e-01 -3.25981602e-02
    -1.21170068e-02  8.52899104e-02 -3.36074121e-02 -1.75990909e-01
    -6.12822436e-02 -6.43673912e-02  1.19182598e-02  7.22968653e-02
     5.98348863e-02 -6.55038059e-02  1.55565619e-01  9.34093893e-02
     1.30967885e-01 -2.66392946e-01 -7.48236775e-02  5.72190732e-02]
   [ 5.57646947e-03 -4.38089967e-02 -1.09616846e-01  1.52632117e-01
    -5.64777963e-02 -6.67781848e-03 -8.91378298e-02  1.38574988e-01
    -5.02439253e-02 -1.09850457e-02 -4.09647115e-02 -2.75438614e-02
     1.78857949e-02  7.90087730e-02  1.92835629e-01  5.14413454e-02
     9.69320349e-03  9.29770060e-03 -8.07945207e-02 -3.61468941e-02
    -9.48345363e-02 -1.15470916e-01  1.06313206e-01 -4.09678835e-03
    -5.66348387e-03 -2.66356636e-02  4.40824516e-02 -1.38104975e-01
    -9.64037850e-02  3.95956100e-04 -1.28783733e-01  1.52460277e-01
    -4.58530933e-02 -1.30446360e-01 -1.57838285e-01  6.99306950e-02]
   [-1.29763424e-01  7.75362849e-02 -4.33439389e-02  1.31149478e-02
     4.28756922e-02 -1.56522989e-01 -6.05120361e-02  1.36643335e-01
    -4.13933247e-02 -8.02123174e-02  2.02760417e-02 -8.86777192e-02
     5.20173423e-02  3.73420268e-02 -1.91944420e-01  8.18291903e-02
     3.60153802e-02 -2.14809746e-01  4.76592965e-02 -2.49922778e-02
     3.70310955e-02  6.76942766e-02  7.99498186e-02  2.05375969e-01
    -2.14585245e-01  1.25609294e-01 -5.59898950e-02  7.72315264e-02
     2.50487357e-01  1.35352999e-01  8.49401280e-02 -7.48044103e-02
     7.91362002e-02  4.17892225e-02 -1.37460968e-02 -9.66920927e-02]]]


 [[[ 4.27276492e-02  2.46651117e-02 -1.17281727e-01 -1.04374036e-01
     8.07730332e-02  8.55665430e-02  8.14538077e-03  7.00023547e-02
     6.39815554e-02  1.12336904e-01 -1.50518879e-01  3.25133242e-02
    -1.62631139e-01 -1.66426226e-02  8.91156718e-02 -1.41239777e-01
    -1.24703646e-01 -7.58530721e-02  7.14362785e-03 -7.03918561e-02
     1.19735159e-01 -3.19126360e-02 -2.65041143e-01  8.55175033e-02
    -4.43995111e-02 -1.06786110e-01  1.82720125e-02 -1.65538028e-01
    -1.34790633e-02 -1.87774643e-01  4.05848492e-03 -7.44137615e-02
    -2.15152115e-01  6.12660274e-02 -8.28894302e-02 -4.79517728e-02]
   [ 5.25853336e-02 -8.31822455e-02  3.28350328e-02  1.00284606e-01
    -1.21795915e-01  8.98250639e-02  1.68514684e-01  1.26990661e-01
     2.17039380e-02  4.31456789e-02  4.80197407e-02  6.84002861e-02
    -1.15683064e-01  2.09492102e-01 -1.84925824e-01 -4.68194522e-02
     5.92777915e-02 -8.18872005e-02 -1.54367629e-02  2.97341086e-02
    -1.79955587e-01 -1.28116593e-01  1.23399265e-01 -7.60079026e-02
    -2.05707550e-02 -1.80638999e-01  1.49210513e-01  3.21359821e-02
     1.02062225e-01  5.67417592e-02 -1.75082497e-02 -1.20466799e-01
    -9.45129991e-02 -1.89031869e-01 -1.28119275e-01  5.22502661e-02]
   [ 2.86285374e-02  7.14885965e-02  2.15955362e-01 -1.94179639e-01
    -9.30723771e-02 -2.13125542e-01 -4.21805941e-02 -2.45617479e-01
    -7.52640888e-02 -1.06138133e-01 -1.13831423e-01 -9.50793475e-02
     1.91213176e-01 -8.67396370e-02  1.91139001e-02 -2.57845670e-02
     7.51026869e-02  1.93409830e-01  8.18729252e-02 -1.76590115e-01
    -6.78006038e-02  9.26764980e-02 -4.91911685e-03  2.50040572e-02
     1.82684958e-01  2.20339261e-02 -1.35106117e-01  6.09258749e-02
     9.20604682e-04  1.06243007e-01 -2.52315521e-01  1.43748850e-01
     1.65851668e-01  1.10486187e-01  2.53149699e-02 -4.48409803e-02]
   [-1.81223229e-01 -3.77377346e-02  5.46463998e-03 -1.93537418e-02
    -1.11944810e-01 -1.48719838e-02 -1.43366098e-01  8.17473754e-02
     2.46313617e-01  1.34047836e-01 -5.78483604e-02  3.45063135e-02
    -9.28533450e-02 -6.38208538e-02  2.05985755e-02 -9.09605622e-02
     3.88279334e-02 -1.46862030e-01  1.40844733e-01  2.02867940e-01
     1.74252599e-01 -1.42618477e-01 -2.95065660e-02 -2.62374401e-01
    -5.45256250e-02 -1.00191034e-01  1.11478254e-01 -6.06022626e-02
     3.18221608e-03 -1.20969951e-01  1.59946576e-01  3.48842777e-02
    -2.02648416e-01  5.12335040e-02 -2.59421319e-01 -2.79648555e-03]
   [ 1.40030950e-01  5.38540352e-03 -1.70043632e-01 -3.77574787e-02
     1.65557876e-01 -3.27353962e-02 -2.67713755e-01 -6.47946745e-02
    -2.18466595e-02 -1.01862988e-02 -1.90682426e-01 -3.68775129e-02
     5.26287185e-04  7.17993677e-02 -3.62220891e-02 -1.73491225e-01
    -4.17531356e-02  5.28845862e-02  9.74741653e-02  1.70640379e-01
    -4.86681350e-02  2.19338611e-02 -1.37412012e-01 -9.19306800e-02
     8.88733845e-03  1.45751089e-01  1.32784978e-01 -1.83045007e-02
    -6.20641485e-02 -1.77466646e-01  1.84615970e-01 -1.02365717e-01
    -1.03859246e-01 -1.25818416e-01 -5.12289703e-02 -7.69094005e-02]
   [ 2.07624119e-03 -7.75191560e-02  1.18162530e-02  5.61032295e-02
    -1.23165054e-02  1.18730940e-01  1.82045028e-01  7.27798603e-03
    -6.80630133e-02 -1.34125829e-01  5.72030805e-02  1.57575086e-01
     6.00473695e-02  8.09892863e-02  4.64980081e-02  8.31997991e-02
    -3.98097225e-02  9.83280763e-02 -2.01057374e-01 -8.73695537e-02
    -8.46185610e-02  7.08307698e-02  5.78502603e-02  2.01447666e-01
     1.01424240e-01  3.55763547e-02 -1.23116322e-01 -1.22426152e-01
     2.42383070e-02  2.71149665e-01 -1.26796275e-01 -1.45393731e-02
     8.91015679e-02  1.94679022e-01 -5.87181225e-02  8.65191743e-02]
   [ 8.85074064e-02  8.33966956e-02 -1.63454235e-01  1.48638964e-01
     7.35018477e-02 -6.22883774e-02 -4.67700604e-03 -1.12068482e-01
     1.32866681e-01  7.68271759e-02 -1.11861467e-01 -9.72706378e-02
    -1.59134299e-01 -6.44796574e-03  8.04056749e-02 -4.53018658e-02
    -1.66448876e-01 -1.43698603e-01 -6.57534972e-02  4.98665497e-02
    -1.61419109e-01 -8.83051381e-03  3.32132131e-02  5.13238832e-02
    -2.33821515e-02  2.18345467e-02  1.56391397e-01  3.24011929e-02
     1.82139371e-02 -1.58300996e-01  1.43577948e-01 -1.89722925e-01
    -1.03990316e-01 -9.56745073e-02  1.26980603e-01 -3.35736461e-02]
   [ 1.40588194e-01 -7.56647885e-02  2.53261775e-02  8.58478621e-02
     1.07190302e-02  1.30627573e-01  5.42360777e-03  2.52270512e-02
     6.45390451e-02  3.78285684e-02 -1.77158356e-01  5.79172708e-02
    -1.72339141e-01  1.52221665e-01  1.21910296e-01 -1.48163974e-01
     5.46155460e-02  2.68901756e-04  2.19267998e-02  7.07991421e-02
     1.29608959e-01  8.61965492e-02 -1.86937332e-01  1.93469897e-02
    -1.20226264e-01  2.61808056e-02  1.47025555e-01 -4.63203192e-02
     1.62833673e-03 -1.66337620e-02 -8.91165510e-02 -9.59651396e-02
    -9.42468196e-02 -2.13609803e-02  2.01108605e-01 -1.90774888e-01]
   [ 4.10494860e-03  1.72088802e-01 -9.27893817e-02  6.04315773e-02
     8.26183632e-02 -5.01437970e-02  1.86764672e-02 -5.36778593e-04
     4.57996428e-02 -1.32887429e-02 -1.35783896e-01 -1.20606810e-01
    -2.58353390e-02  2.05806773e-02  1.18259907e-01 -1.32366400e-02
    -1.46420285e-01 -7.90101662e-02 -5.88646196e-02  2.12006215e-02
    -1.27763059e-02 -7.29627609e-02 -1.21520400e-01 -4.27247919e-02
    -1.80787861e-01  2.04439729e-01  9.39710066e-02  8.00042376e-02
     1.92781277e-02 -3.06119919e-02  8.32286775e-02  9.24598053e-02
    -7.17985556e-02  9.86896753e-02 -2.15102639e-02 -8.56224373e-02]
   [ 1.15045495e-01 -3.58193815e-02  4.83481437e-02  2.07292065e-01
     2.58976549e-01 -1.06337313e-02  5.35403602e-02  3.44933093e-01
     3.64644034e-03  1.25542775e-01  3.88331339e-02  1.15335859e-01
     1.20817550e-01  2.00505584e-01  2.86935326e-02  2.44855225e-01
     2.16467366e-01  9.38495994e-02  1.42400369e-01  1.11376189e-01
    -6.99031949e-02 -1.90268399e-03  1.41782239e-01  2.41690546e-01
     1.59189180e-01  2.37487838e-01  5.51438630e-02  1.11311570e-01
     7.60388374e-02 -4.53664884e-02  2.11144432e-01  2.18054488e-01
     1.49091795e-01  1.39743030e-01  3.07039618e-01  1.65627778e-01]
   [-1.97371677e-01  1.81059539e-01 -1.62395276e-03 -1.80362508e-01
    -2.89086290e-02 -2.00359225e-01  3.54387313e-02 -8.21210220e-02
    -1.51099607e-01 -1.96006000e-01 -1.37431651e-01  4.55074161e-02
    -1.75161242e-01  9.32426825e-02  9.22528468e-03  3.32697146e-02
    -6.25975877e-02 -2.30688691e-01 -6.12421446e-02  1.86666667e-01
     1.41871005e-01  1.06074847e-01  3.88038233e-02 -1.54435541e-02
     1.55235931e-01 -1.98364686e-02 -3.31597179e-02  1.72958016e-01
    -8.03260356e-02  2.16872588e-01  2.58415006e-03 -1.36862978e-01
    -1.82986900e-01  7.27152335e-04 -5.10345884e-02  5.11608608e-02]
   [-5.99626750e-02  2.91341916e-02 -1.63620561e-01 -7.19160438e-02
     1.37885824e-01 -1.72872066e-01 -2.50246435e-01 -7.28873983e-02
     2.49446899e-01  1.30693436e-01 -7.17490315e-02 -5.86667610e-03
    -1.00184802e-03 -7.02931806e-02  8.07999223e-02 -2.44221255e-01
     8.13577026e-02  1.58703551e-02 -3.64846028e-02  3.07136297e-01
    -6.84732571e-02  7.19679296e-02  3.73512805e-02 -2.34171763e-01
    -6.84611872e-02  6.53107315e-02  1.55441955e-01  3.99108566e-02
     5.41561209e-02 -2.23796904e-01  1.18479900e-01 -8.39793235e-02
     7.99797196e-03  1.87937431e-02 -2.24522620e-01 -2.19946746e-02]
   [ 3.69245633e-02  8.39094520e-02  4.27425327e-03  1.31897017e-01
     5.92631660e-02  1.37296706e-01  3.77201587e-02 -1.60948522e-02
    -1.68209344e-01 -2.27127612e-01  5.70651703e-02 -1.08580336e-01
     1.73835829e-02 -1.09989978e-01  1.99230649e-02  8.36794749e-02
    -7.29854628e-02 -2.41152365e-02 -2.43744180e-01 -1.68847576e-01
    -1.51765957e-01  1.30940661e-01 -1.31771713e-01  1.04130581e-01
    -2.16618419e-01 -1.22497618e-01 -2.26933304e-02  2.00585693e-01
    -5.17553277e-02 -4.83879969e-02 -3.81276123e-02 -1.36528611e-01
    -1.53621897e-01 -6.47865981e-02  2.36352403e-02 -9.99492481e-02]
   [ 6.35098889e-02 -2.62497753e-01  5.30975088e-02 -2.92847276e-01
    -4.97106463e-02  1.26479402e-01 -6.65002167e-02  9.02975909e-03
     6.94049969e-02  6.29924089e-02 -8.20008293e-02  1.52309090e-01
     5.16097546e-02 -1.99182108e-02  9.24221128e-02 -8.74088407e-02
     1.09994777e-01 -9.71556231e-02  1.80337653e-02  3.32084447e-02
     3.17760855e-02 -1.66855268e-02 -1.02496393e-01 -1.14924945e-01
    -8.95178244e-02 -5.62424697e-02 -1.74917042e-01 -6.88567907e-02
    -4.58352827e-02 -6.46072477e-02 -1.31326109e-01  2.54319571e-02
     1.07848225e-02  3.39772068e-02 -2.43563801e-01  8.10984969e-02]
   [ 6.37163371e-02 -9.61603671e-02 -1.26947626e-01  3.01051382e-02
     4.85288203e-02  7.81624243e-02 -1.08905099e-01  1.76406503e-01
    -4.34369296e-02 -5.86824119e-03 -9.17997137e-02 -3.07104867e-02
     8.69428068e-02  2.72806063e-02  1.19171388e-01 -1.82375193e-01
    -6.10443903e-03 -1.29802421e-01 -2.50262227e-02  2.54113600e-02
     5.68294190e-02 -4.26462814e-02 -9.95750576e-02  1.51996166e-01
    -1.40402345e-02 -1.32433563e-01  1.24956757e-01 -7.26752430e-02
    -8.19201320e-02 -7.62730762e-02 -1.38524070e-01 -5.86627424e-02
    -8.59449282e-02  1.20951654e-03  2.64164293e-03  6.39552101e-02]
   [-2.25575000e-01 -1.13055542e-01 -8.79683718e-02 -3.24964076e-02
     1.46922432e-02  1.82599977e-01  1.12749059e-02  1.28285483e-01
     4.32394408e-02 -6.15694113e-02 -1.59867525e-01 -7.36633018e-02
     9.94826481e-02 -2.09327668e-01  1.57788932e-01  1.22973382e-01
    -6.06750324e-02 -1.18800290e-01 -2.80515552e-02 -3.76517922e-02
     3.87479253e-02 -1.08819306e-01 -1.84921369e-01  7.39600509e-02
    -1.83361888e-01 -7.61893615e-02 -8.00401941e-02  1.40946507e-01
    -8.52321312e-02  1.51478574e-01  6.02024458e-02 -1.82705224e-01
    -9.01494175e-02 -1.05103172e-01 -5.17057739e-02 -1.32150263e-01]]

  [[ 6.38860911e-02 -1.78853199e-01 -9.28965434e-02 -1.20023496e-01
     1.07940305e-02  7.99971074e-02  2.10585091e-02 -1.20256543e-01
    -5.34581952e-02  7.41759837e-02 -1.02408774e-01  7.08668157e-02
    -5.74392825e-03  4.64568660e-02 -3.41645479e-02 -1.00152850e-01
     3.30615602e-02 -7.71526843e-02  7.00419247e-02 -9.97663513e-02
     1.34071350e-01 -1.20473310e-01 -1.63905114e-01 -4.70549800e-02
     1.73196755e-02 -1.23649582e-01 -8.34672451e-02 -1.20314255e-01
    -9.47270989e-02 -4.40562256e-02 -1.03250265e-01  4.24590334e-03
     6.32231683e-02  5.00317514e-02 -5.48527166e-02 -2.04222754e-01]
   [-9.92156565e-02  1.06545083e-01 -3.01167765e-03 -1.82369947e-02
     1.10403448e-01  8.44754800e-02 -4.93812822e-02  7.35581070e-02
     1.24324843e-01  1.30166203e-01 -7.12162182e-02 -8.05881843e-02
    -1.30648896e-01  5.76573499e-02 -1.71897098e-01 -4.65357639e-02
    -7.80586004e-02  7.08235577e-02 -1.76918834e-01  8.39732364e-02
     5.74095771e-02 -2.29537711e-01  3.54276113e-02 -2.78974295e-01
    -1.19675092e-01  1.62161618e-01  1.22030459e-01  1.03396652e-02
     4.32779128e-03  6.75817430e-02 -8.36207122e-02 -1.09951802e-01
    -9.07223076e-02 -3.18695270e-02 -2.27428079e-01  2.58151926e-02]
   [ 5.19789755e-02 -4.76516560e-02  1.93782642e-01 -2.00807646e-01
     8.73905867e-02 -8.59964415e-02 -3.45782517e-03  1.55475020e-01
     1.78879738e-01 -6.49372637e-02  2.26659290e-02  1.12657420e-01
    -1.48947760e-01 -1.49269670e-01 -1.43197492e-01  9.74467248e-02
    -1.09723225e-01  1.85646817e-01 -2.77089000e-01 -1.40412942e-01
    -6.78353012e-02 -1.19101278e-01  8.59876573e-02 -1.00326061e-01
     9.37439650e-02  4.21948358e-02  4.66486402e-02 -4.94333319e-02
    -7.29118958e-02 -7.27288192e-03  2.15656254e-02  6.58359155e-02
     5.30896150e-02  1.53638899e-01  2.51132553e-03  1.31541774e-01]
   [ 6.92086369e-02 -3.79688405e-02  5.18943183e-02  8.28837454e-02
    -8.11120346e-02  8.03602040e-02  1.36823840e-02 -1.25145586e-02
    -4.37162668e-02  2.26432122e-02  9.12124217e-02 -7.70459920e-02
     7.44023919e-02  1.78720459e-01  7.51251578e-02  1.65018737e-01
    -1.69044808e-02 -1.86720923e-01  1.55793838e-02  1.28707383e-02
     7.34377429e-02 -3.73047777e-02 -8.56834576e-02 -4.22451980e-02
     9.99847949e-02  7.21488968e-02  1.42765209e-01 -6.32714108e-02
    -1.50381811e-02 -2.05622375e-01 -7.67059624e-02 -2.43154198e-01
    -6.28057122e-02 -1.50358975e-01 -1.18121631e-01  6.51082071e-03]
   [-1.39234010e-02 -1.88776538e-01  2.93618906e-02  9.74532142e-02
    -5.72142862e-02 -1.31085008e-01 -1.37005270e-01 -1.35392457e-01
    -1.00347757e-01  3.89097519e-02  9.05784406e-03 -8.33871514e-02
    -3.79600897e-02 -1.06191687e-01  6.99804574e-02  4.26904783e-02
    -9.06708837e-02  6.58189971e-03 -6.62344471e-02  1.58443615e-01
    -4.18878533e-03  8.90526846e-02 -1.34779170e-01  3.70499119e-02
    -1.01359308e-01 -5.91193512e-02  1.14935003e-01 -1.36645883e-01
    -1.63213030e-01 -1.91745162e-02 -5.61559061e-03  4.01872844e-02
     9.82497856e-02 -2.17291579e-01 -1.39426216e-01 -6.56087175e-02]
   [ 5.31470105e-02 -1.20599128e-01 -8.27099681e-02 -4.62752581e-02
     5.11512160e-02 -9.58598033e-03  6.86755255e-02 -2.10111529e-01
    -1.23244233e-01 -1.42706722e-01 -1.44106850e-01 -1.52077094e-01
     3.00341584e-02 -8.34563226e-02  2.64818102e-01  1.69639029e-02
    -1.45184264e-01 -1.94600690e-02 -1.27768457e-01 -8.26192871e-02
    -6.66577965e-02  1.92656130e-01  1.41692862e-01  1.68169066e-01
     9.49588344e-02  2.67848551e-01 -9.44972038e-02  9.14365891e-03
    -5.44679090e-02  4.43092622e-02  2.05216818e-02  1.08578049e-01
    -2.61503160e-02  1.97393924e-01 -1.08136438e-01  1.89282760e-01]
   [ 6.88576400e-02 -1.94249395e-02 -1.69397920e-01  8.62569064e-02
     5.30953258e-02 -9.62453485e-02  4.61499766e-03 -3.47130559e-02
    -2.67022308e-02  7.04598706e-03 -1.29062384e-01 -5.73977083e-02
    -3.34538147e-02 -1.02029771e-01  9.58977491e-02  2.15838160e-02
    -1.78659618e-01 -1.92413330e-01 -1.47925228e-01  1.46339282e-01
    -1.61634237e-01  1.98983133e-01 -1.77599609e-01  9.49666649e-02
     9.01042968e-02 -7.35963508e-02  1.49012372e-01  4.95799854e-02
    -8.78076628e-02  6.04153313e-02  4.31199968e-02 -1.23691531e-02
    -7.09251240e-02 -5.68258911e-02 -5.10373265e-02 -1.08056933e-01]
   [ 6.39852434e-02  9.38217528e-03 -2.25541554e-03 -1.99506402e-01
     1.89168733e-02  1.32140264e-01 -1.52231589e-01  3.83630469e-02
     9.71479565e-02  7.71607310e-02 -1.63111150e-01 -4.50044200e-02
    -1.80332344e-02  8.59448910e-02  8.92311782e-02 -4.69087027e-02
     1.72357485e-02 -1.42211303e-01  5.04039489e-02 -1.50884062e-01
     1.76915571e-01 -6.79938719e-02 -1.14291020e-01 -3.83295584e-04
    -5.24236597e-02 -1.03963390e-01 -8.68453532e-02 -1.34286806e-01
     1.46096766e-01 -4.84157773e-03 -1.45785585e-01 -8.59637111e-02
    -3.83668952e-03 -1.23214118e-01 -6.98315352e-03 -1.74241006e-01]
   [-3.37864906e-02 -1.84527738e-03 -1.49164915e-01  5.43469377e-03
     1.10662229e-01  5.53662740e-02 -7.25095198e-02 -1.17350377e-01
     8.06454942e-02 -1.06286101e-01 -2.87674721e-02  6.03041984e-02
     9.38006416e-02 -1.29819199e-01  1.46002829e-01  1.04753561e-01
    -2.61084676e-01 -8.26537609e-02  4.85770032e-02  7.20958188e-02
    -1.51600689e-01  8.83953199e-02  6.26770407e-02  1.76807731e-01
    -6.42723590e-03  1.26066878e-01 -8.16602036e-02  1.31836131e-01
     1.71844047e-02  1.09688662e-01 -6.13033026e-02 -3.38888951e-02
     9.55821276e-02 -1.71421573e-01  8.70928779e-05 -7.18021095e-02]
   [ 1.15384094e-01 -5.61910346e-02 -5.33491820e-02 -7.84415975e-02
     1.38804689e-01  6.19129613e-02  7.60086477e-02  3.33178312e-01
     7.74190128e-02  1.46293581e-01  1.64306149e-01 -8.50249454e-02
     1.45420521e-01  1.57452315e-01  1.32730916e-01  1.53894886e-01
     2.03732923e-01  6.81118816e-02  9.04502496e-02  2.16248140e-01
    -5.81031316e-04  8.33505988e-02  1.29961923e-01  5.08858487e-02
     2.34051257e-01  4.16618064e-02  1.42323613e-01  1.47133946e-01
     6.79508820e-02 -8.98256898e-02  9.34939906e-02  1.53759345e-01
     1.96099341e-01  1.44874811e-01  2.60077894e-01  1.37828559e-01]
   [ 4.71694395e-02  1.31556660e-01 -1.02883235e-01  2.42260355e-03
    -3.49195413e-02 -8.18187594e-02  1.02591822e-02 -1.76029623e-01
    -5.25977835e-02  8.76615867e-02  1.00124143e-01 -6.67511765e-03
     3.03808954e-02 -1.43096909e-01  1.04085997e-01 -1.30524546e-01
     2.55776290e-02  6.05680980e-02  1.38938189e-01  4.36872430e-02
     1.19700752e-01 -9.03531611e-02  1.21775925e-01  2.48497099e-01
    -1.17432782e-02  7.04721361e-02 -5.63370548e-02 -4.47865836e-02
     1.30818561e-01  1.28708398e-02  4.53325287e-02  1.53389424e-01
     4.44749482e-02  5.63139208e-02  2.35587358e-02  6.71303347e-02]
   [ 1.02455474e-01 -8.30659717e-02  5.11068255e-02  8.30921680e-02
     1.56137332e-01 -7.42432699e-02 -7.99551383e-02 -2.28477210e-01
     1.65033937e-02 -1.09444736e-02  8.16598535e-02 -7.41693750e-02
    -1.01800308e-01  4.30286378e-02  5.03658131e-02 -5.28679788e-02
     3.76759954e-02  2.55788267e-02  5.52645214e-02  9.82603282e-02
     6.20365962e-02 -5.57812687e-04 -6.21883236e-02 -6.18956797e-02
    -1.17123447e-01  5.76894134e-02  1.67402118e-01 -1.84135973e-01
     1.11162998e-02  5.96020883e-03  6.86581582e-02 -1.04314521e-01
    -5.34220226e-02 -1.27653079e-02 -2.14115933e-01  5.20725660e-02]
   [ 3.29989716e-02 -5.41987782e-03 -1.76407322e-01 -3.89762260e-02
    -1.28461093e-01 -5.68637885e-02 -1.13317937e-01 -3.59393992e-02
     2.94497069e-02 -2.07732365e-01 -1.19072080e-01 -1.36101283e-02
     1.12847008e-01 -1.99312821e-01  4.11567576e-02  1.41573563e-01
    -1.18077278e-01 -8.54382440e-02 -6.83515221e-02 -9.12285969e-02
    -6.54493868e-02  1.97284110e-02 -6.32764772e-02  2.20092684e-01
    -3.31099480e-02 -1.04717880e-01 -2.32548922e-01  5.43388166e-02
     8.26671198e-02  2.77813822e-02 -6.38056323e-02  3.74678336e-02
     2.22724434e-02 -1.18004806e-01  3.14850993e-02  3.39717381e-02]
   [-4.02758643e-02 -2.15780977e-02 -2.18167100e-02  9.44254473e-02
     4.31688763e-02 -6.25785962e-02 -4.46896926e-02 -5.57030700e-02
    -1.61589533e-02  5.03494814e-02 -1.72876820e-01  6.54146820e-02
     1.40420020e-01  6.75899014e-02 -1.76591620e-01 -8.08672756e-02
     8.74443725e-03  1.18224487e-01 -9.58060324e-02 -1.68048307e-01
     3.28566059e-02  7.54884630e-03  2.90902834e-02 -2.94109702e-01
    -1.32427871e-01 -1.47810400e-01  7.43454918e-02  7.42997453e-02
    -7.13278875e-02  4.76914756e-02 -1.45659506e-01  7.76180327e-02
     3.67271788e-02  1.54080048e-01  9.41211209e-02 -1.04328413e-02]
   [ 1.17476813e-01 -2.69848369e-02 -1.66039318e-01 -1.76240448e-02
    -4.23274450e-02 -4.40999642e-02  2.75076274e-02  2.03035131e-01
     3.03405561e-02 -8.43226835e-02 -1.75154224e-01 -5.33099286e-02
    -1.02372214e-01  2.47624796e-03 -8.55610967e-02  7.41096633e-03
     4.46967445e-02  4.93774116e-02 -2.60619204e-02  3.90548669e-02
     1.15690760e-01 -1.35143533e-01 -1.06770948e-01 -1.29120767e-01
    -1.18906550e-01 -1.02927774e-01  2.70090960e-02  6.36648238e-02
    -4.38997149e-02 -4.30982709e-02 -1.37150437e-01  3.26997004e-02
    -2.78825946e-02  8.09363052e-02  1.85276121e-01 -1.36937141e-01]
   [-1.24658696e-01 -2.04848964e-02 -1.55402735e-01  1.70622036e-01
    -9.48309973e-02  1.57729775e-01  1.21042855e-01  9.07208994e-02
    -3.21858764e-01  1.12535641e-01 -1.16215259e-01 -3.28474827e-02
     2.02364683e-01  1.09598070e-01  2.44640391e-02  1.70456395e-01
     2.36846656e-02 -1.92583986e-02  6.37379587e-02 -1.12113327e-01
    -8.11911747e-03 -1.77783847e-01  8.15795735e-02  3.30194160e-02
     9.24499258e-02 -4.36799750e-02 -7.88758025e-02  1.18264183e-01
     7.02321753e-02  2.55535040e-02 -2.40299534e-02 -2.26703614e-01
    -2.23849174e-02  3.56527083e-02 -3.20255198e-02 -1.06056547e-02]]

  [[ 1.52781149e-02 -8.90321285e-02 -1.95966765e-01 -5.54401353e-02
     5.18117771e-02 -1.04134008e-01 -1.18339628e-01  1.20466063e-02
    -5.99779710e-02  5.22936061e-02 -1.51153967e-01  5.90212783e-03
     2.63652615e-02  1.14010647e-01 -1.01207003e-01 -4.32360061e-02
     9.30388644e-02 -9.00313929e-02  3.99070010e-02 -1.81103513e-01
     3.20614688e-02 -1.53417096e-01 -1.35809973e-01 -7.55922720e-02
     2.22056266e-02 -1.88958287e-01  8.54467601e-02 -4.01473008e-02
    -6.77384585e-02 -1.13800623e-01 -1.21863540e-02  6.22743666e-02
     1.69360675e-02 -3.27596888e-02  3.72113362e-02 -8.93355682e-02]
   [ 2.17989143e-02  4.65392172e-02 -3.99640165e-02 -1.11940891e-01
     1.43455714e-01  1.19039178e-01 -5.96931614e-02  6.75261617e-02
    -3.29406708e-02 -3.98989171e-02  1.44474031e-02 -4.73715877e-03
    -5.33992350e-02  1.07686155e-01  2.28820607e-01  5.19030802e-02
    -1.02722451e-01  1.36556938e-01  1.85903143e-02  9.16335061e-02
    -3.06754205e-02 -8.97530168e-02 -4.35202606e-02  5.23518845e-02
    -8.82329978e-03  2.40889251e-01  1.29125908e-01  7.65819773e-02
     1.60254523e-01  2.00184539e-01 -4.19522263e-02 -1.09852940e-01
    -1.82620585e-01 -1.38308890e-02 -1.98510334e-01  8.51083696e-02]
   [ 4.25776429e-02 -1.00328483e-01  4.89787906e-02 -1.84772775e-01
    -1.14202380e-01  3.27127166e-02 -3.00262541e-01 -3.40050980e-02
    -6.72136992e-02 -2.97870836e-03  8.31849203e-02 -4.29431051e-02
    -9.71422195e-02 -5.02587073e-02 -1.28899723e-01 -2.56980974e-02
     1.19453100e-02 -8.79082307e-02 -2.02219054e-01  1.23123815e-02
    -1.28562137e-01 -1.68653228e-03  6.22525662e-02  5.30052148e-02
     5.05557954e-02 -5.89094497e-03 -1.14027202e-01 -1.33530617e-01
    -1.45812780e-02 -5.39348051e-02 -2.76330829e-01 -1.09654561e-01
    -1.69519439e-01  1.95061043e-01  3.88406217e-02  2.90546045e-02]
   [ 1.22677587e-01 -1.80768713e-01 -3.60892415e-02 -6.50181994e-02
    -2.98561715e-02 -1.33762062e-02  4.02391739e-02  7.10708499e-02
    -2.53642142e-01 -4.57326993e-02 -1.39937818e-01 -4.44568023e-02
     1.23968348e-01  1.53604239e-01  8.51648152e-02  1.18493952e-01
    -1.81156263e-01 -1.08302660e-01 -1.03624061e-01 -6.42029801e-03
     1.71118490e-02 -3.71082011e-03  5.33842407e-02 -1.13788143e-01
    -1.05998106e-02  1.05609797e-01 -4.02833074e-02 -2.54796058e-01
     3.24149504e-02 -1.02991559e-01 -2.86109209e-01 -2.37029847e-02
    -2.25241303e-01 -3.63733396e-02 -1.22933328e-01  7.70675614e-02]
   [-4.48223390e-02  3.47296931e-02 -1.36694282e-01 -4.01049070e-02
    -5.25283292e-02  2.76413299e-02  1.73827350e-01  1.98651236e-02
     1.09599382e-01  1.45658543e-02 -6.68495148e-02  5.23260608e-02
    -2.27454063e-02 -1.01018749e-01 -2.56535038e-02  1.46010444e-01
    -3.42851914e-02  5.21327928e-02  8.11723322e-02 -4.47484814e-02
    -5.52442409e-02  4.70507145e-03  6.48804903e-02 -3.27908807e-02
     1.20181531e-01  3.73994373e-02  2.75528803e-02 -7.66748190e-02
    -5.73368929e-02 -1.77352995e-01 -1.24555007e-02  4.04178277e-02
     8.41181576e-02 -3.79963741e-02 -6.85688332e-02  3.27062584e-03]
   [ 1.06195910e-02  9.98322740e-02  7.61275589e-02 -4.75602746e-02
     1.17921278e-01 -3.34566161e-02  8.86493251e-02 -1.66364655e-01
     1.03215203e-01 -1.34207845e-01  1.94652811e-01  3.13669741e-02
     3.81441228e-02 -2.35114276e-01  3.10450997e-02 -2.79845763e-03
    -8.16434994e-02  4.93651405e-02  8.84442255e-02  8.83207992e-02
    -4.14637513e-02 -6.10901713e-02  4.73316833e-02  1.19285651e-01
     1.68266565e-01 -2.34712824e-01 -8.37353542e-02  6.77464306e-02
    -1.15600087e-01  1.20351193e-02 -8.53404701e-02  1.54026538e-01
     1.10678151e-01  7.84229487e-02  6.02624603e-02 -2.89838687e-02]
   [ 8.46917927e-02  3.07719000e-02 -7.89986402e-02 -2.51528267e-02
    -1.60591081e-01 -7.94229805e-02  9.83148962e-02  6.00991361e-02
    -5.50707616e-02 -5.63699864e-02 -1.79828197e-01  1.00012533e-01
    -7.29563162e-02 -2.14507729e-01 -7.96095729e-02 -7.77037814e-02
    -1.96306035e-01  8.74488987e-03 -5.79905473e-02 -1.02147847e-01
    -1.04596004e-01  8.01167265e-02  9.88876913e-03 -3.69818732e-02
     1.67034462e-01  4.20964416e-03 -2.92002631e-04  5.45858555e-02
    -6.30901977e-02 -1.95676228e-03 -1.77185938e-01  3.20196450e-02
    -2.52814386e-02 -5.72802797e-02  2.18654379e-01  1.33440429e-02]
   [ 3.48292999e-02 -9.74598713e-03  5.89490645e-02  3.68936779e-03
    -7.18395114e-02 -4.46013026e-02 -3.08854822e-02 -6.57232255e-02
    -6.37512133e-02  1.12517446e-01 -1.34964630e-01  2.97334287e-02
     8.11314881e-02  2.93095391e-02  5.09350635e-02 -1.02178585e-02
     3.84882875e-02 -9.56181064e-02  2.63843816e-02  5.61118452e-03
    -1.71183341e-03 -1.48649752e-01  9.00873616e-02  5.56815974e-02
    -4.48427796e-02 -1.50204033e-01  9.83969495e-02  9.47468653e-02
    -3.02024558e-02 -3.09959352e-02 -1.39874369e-01  2.96221729e-02
    -4.24443819e-02 -6.62362501e-02  2.46374942e-02  1.04325227e-02]
   [-1.77469589e-02  2.28792373e-02 -9.50700939e-02  2.06612982e-02
    -2.50959396e-02 -3.36372964e-02  3.16066816e-02 -6.18990399e-02
    -4.71687596e-03 -2.84480136e-02 -3.80058773e-02  5.42962961e-02
    -1.87518656e-01 -1.70603856e-01 -8.52997079e-02  1.28399253e-01
    -1.25067368e-01 -1.95058748e-01  1.33883774e-01  1.58162832e-01
     3.83070558e-02 -2.57541835e-02 -6.93816766e-02 -7.62770548e-02
    -1.37861073e-01  1.02842331e-01 -1.91123337e-01  7.58596733e-02
    -6.56997114e-02 -2.86213066e-02  4.38387282e-02  5.88094071e-02
     1.81388557e-01  5.73640168e-02  1.47105873e-01  3.00362650e-02]
   [ 1.44651055e-01 -5.47645986e-02  2.72656847e-02 -9.17548537e-02
     2.18071848e-01 -2.52704732e-02 -6.03042804e-02  2.19698593e-01
    -1.85696818e-02  1.30357966e-01  1.33969739e-01  2.74410956e-02
     6.49176165e-02  7.52149802e-03  7.69217834e-02  2.75805295e-01
     3.25687043e-02  7.87742957e-02  1.37017682e-01  6.42598048e-02
     1.13488048e-01 -6.43825680e-02  2.97783390e-02  6.79780021e-02
     1.42994344e-01  1.35101467e-01  1.91807374e-01  2.17809930e-01
     1.21324003e-01 -2.23931000e-02 -8.08845535e-02  2.49040365e-01
     1.72809944e-01  1.06175512e-01  1.28975719e-01  8.43552500e-02]
   [ 5.45412526e-02 -8.93867854e-03 -5.77791631e-02  1.82353884e-01
     4.96033244e-02 -6.15167692e-02 -5.71305938e-02 -2.83070743e-01
     5.45198359e-02  6.86753094e-02  1.63351029e-01 -7.65558779e-02
    -9.82333645e-02 -3.00865501e-01 -4.62801345e-02 -1.30225182e-01
     1.91877987e-02 -1.56619418e-02  1.71535704e-02 -1.89238507e-02
     1.57168254e-01  7.62000531e-02  1.10090204e-01  1.74185425e-01
    -1.26985028e-01  9.17019546e-02  2.27883924e-02  1.18865773e-01
     1.76604670e-02  1.42334282e-01 -2.03450471e-01 -5.59105203e-02
    -4.67093755e-03 -4.85939421e-02  8.99581611e-02  6.28098240e-03]
   [ 1.42678216e-01 -1.60739675e-01 -3.36339660e-02 -1.30590647e-01
    -1.39266968e-01  1.08274855e-01  4.15103845e-02 -4.48948294e-02
    -2.13357881e-02  3.90506424e-02 -8.72767195e-02 -2.66465414e-02
     7.05733001e-02  4.99664918e-02  9.23011005e-02  1.18469313e-01
    -1.07715875e-01 -4.14909199e-02  2.49137990e-02 -1.03048235e-01
     5.02821021e-02  1.88794941e-01  5.60590178e-02  1.91138182e-02
     1.11970745e-01  1.35660321e-01 -1.92368645e-02 -2.33159930e-01
    -1.21348441e-01 -1.27028093e-01 -2.46545002e-01 -4.14598212e-02
    -1.67237133e-01  1.26357943e-01 -1.72028363e-01 -6.56749755e-02]
   [-1.95168629e-01  2.05759145e-02 -6.26335740e-02  1.84710011e-01
    -4.81545441e-02 -1.04952991e-01 -5.88286668e-02  1.38002291e-01
     9.41169783e-02 -4.52562310e-02 -4.05897759e-02  7.52661452e-02
     1.59929320e-01 -1.17727406e-01 -8.39807540e-02  7.01006725e-02
    -7.91127086e-02  6.22165427e-02  1.46306545e-01  1.20690234e-01
    -1.39649689e-01  1.54638803e-02  3.02171763e-02 -1.47423565e-01
    -2.40134522e-02  1.23338737e-01 -6.15637153e-02  1.49129733e-01
    -7.99850747e-02 -1.86438523e-02  8.63634497e-02  5.97829781e-02
     1.28436208e-01 -7.01522827e-02  6.82624504e-02  1.15221269e-01]
   [ 5.95423318e-02  6.53276667e-02 -1.07317440e-01 -3.55158821e-02
     6.05970472e-02 -1.31711084e-02 -1.96739763e-01  1.75260305e-01
    -4.46500741e-02 -1.17213286e-01  5.15393615e-02  3.28087211e-02
    -7.39718601e-02 -4.39994894e-02 -3.93370315e-02 -8.44375864e-02
     1.41169310e-01  1.15961991e-01 -3.30052048e-01 -1.85419694e-02
     6.41863840e-03  2.79343850e-03 -8.92430916e-02 -1.11962542e-01
    -1.92830916e-02 -1.45706654e-01 -1.08421370e-01  2.15912193e-01
    -2.57799309e-02 -9.25675482e-02  9.90270898e-02 -1.21570706e-01
    -3.39384796e-03 -4.25992422e-02 -9.67266262e-02 -2.21395597e-01]
   [ 1.06119104e-01 -1.08923964e-01 -9.78787765e-02 -1.54247805e-01
    -7.15964986e-03 -1.10617749e-01 -2.25737058e-02  1.27588496e-01
    -5.82826398e-02  4.01584059e-02 -4.88541164e-02  1.44981474e-01
     9.87296775e-02  5.95067702e-02  2.65473779e-03 -7.84248859e-02
     1.50122689e-02  4.35133837e-02  5.41009121e-02 -1.11161530e-01
     3.57729197e-02 -5.66362515e-02 -3.66191729e-03 -1.15503177e-01
     2.01065212e-01 -4.52963971e-02  8.07454884e-02 -1.10611588e-01
     3.60689349e-02  1.04098760e-01  6.12320267e-02  6.26068339e-02
     8.70403741e-03 -1.55013531e-01 -2.87841586e-03 -1.17081150e-01]
   [-3.19604129e-02 -1.88738964e-02 -1.97200388e-01 -1.68845654e-02
     7.27104768e-02  1.54702216e-01  7.78021887e-02  1.40891016e-01
    -7.22896159e-02  1.91241175e-01 -1.21610366e-01 -7.06293136e-02
     1.21185996e-01 -3.40385586e-02 -6.38426468e-02  6.49139211e-02
     2.00372145e-01 -4.39488403e-02 -6.46299571e-02 -9.55495685e-02
     1.29432306e-01  2.63579972e-02  1.51730776e-02  6.01044670e-02
    -4.59873565e-02  1.65882960e-01  5.32385036e-02  2.32267119e-02
    -7.19711483e-02  1.26937613e-01  1.85111374e-01 -1.84182972e-01
     6.83918223e-02  1.11749031e-01 -1.03439592e-01 -1.21226795e-01]]]]
layer_conv2/bias:0
(36,)
[-0.20667124 -0.01797736 -0.06036946 -0.02064216 -0.27401364 -0.10638674
 -0.084989   -0.2837278  -0.12270774 -0.04798429 -0.16719459  0.00422201
 -0.14254668 -0.0901347  -0.02352528 -0.20343505 -0.15526052 -0.07194413
 -0.05342794 -0.14993066 -0.06814055  0.00309033 -0.08360692 -0.1092217
 -0.13726094  0.00150935 -0.18171765 -0.06041072 -0.06794607  0.05644199
 -0.02743196 -0.13704865 -0.06327715 -0.16683586 -0.1360566  -0.18642361]
batch_normalization_1/gamma:0
(36,)
[0.92129725 0.9040439  1.0705007  0.90538347 0.99018204 1.21555
 0.74612683 1.0940021  1.0741084  1.2303771  1.0190129  0.90539545
 1.018084   0.9604456  0.9365692  0.881289   0.9905935  1.0867926
 1.0075586  0.8534496  0.8637485  0.7719033  1.2269118  1.0985627
 0.87376165 1.0019143  0.85116196 0.98113126 1.2587612  0.91014576
 0.8092135  0.91303307 1.009946   1.1315906  0.86562455 1.0691704 ]
batch_normalization_1/beta:0
(36,)
[0.205726   0.13946125 0.08343612 0.17987491 0.2078536  0.15095553
 0.10839396 0.23490417 0.21150137 0.18596555 0.22136486 0.08133481
 0.266048   0.17306241 0.21438432 0.25085157 0.17026259 0.15113704
 0.11978377 0.2451407  0.22226988 0.1812799  0.09280055 0.22736004
 0.2033521  0.16310903 0.2180051  0.15575293 0.12159573 0.15884744
 0.15694924 0.19432464 0.25604138 0.17502059 0.18452625 0.21724029]
dense/kernel:0
(1764, 128)
[[ 2.33851708e-02  1.72542967e-02 -2.46882085e-02  5.19303977e-02
  -5.81489876e-02  4.34319787e-02  2.51430608e-02 -1.06543107e-02
  -1.39883887e-02  7.49266222e-02 -4.41470966e-02 -2.84336377e-02
   1.52729440e-03 -1.90394390e-02  8.11504871e-02  7.82991387e-03
  -1.54048586e-02  9.25444067e-02 -1.35394335e-02  3.01342532e-02
   4.61426191e-03 -2.21196190e-02  6.15472756e-02  5.09161875e-02
   3.03139947e-02  2.19789799e-02  7.71168619e-02  1.93210971e-02
   3.43130082e-02  1.63557194e-02  5.13201132e-02  6.50680289e-02
  -5.05054705e-02 -4.38945331e-02  1.43453339e-02 -5.35634942e-02
  -2.12521479e-02  1.19585376e-02  1.15445800e-01 -4.63972539e-02
  -4.19084765e-02  2.03515459e-02 -1.14555070e-02  1.88854951e-02
   5.46883941e-02  8.74660257e-03 -3.66572058e-03  8.27459991e-02
  -1.03019793e-02 -4.87805381e-02  2.22511496e-02 -4.83956840e-03
   2.16072891e-02 -2.53475141e-02  1.14629462e-01  7.97314718e-02
  -1.80085562e-02  4.00278494e-02  3.17073762e-02  4.15847786e-02
   1.16751157e-01  4.80717234e-02 -3.85161452e-02 -6.16681501e-02
  -8.91238004e-02  7.09838495e-02 -3.64114456e-02  1.46704223e-02
  -3.95502010e-03  3.12087294e-02 -5.10783307e-03 -6.72713816e-02
   2.81916820e-02  1.58517249e-02  1.67738777e-02  4.24410179e-02
   3.94804925e-02 -2.90615372e-02  5.35433553e-02  2.80344230e-03
   9.63460729e-02 -1.68743543e-02  9.52601142e-04 -5.32957539e-02
   1.08612794e-02 -1.25861820e-02 -1.25501305e-02 -1.38405031e-02
  -7.38187041e-03  7.26462603e-02  2.53755078e-02 -7.35299215e-02
  -2.76617128e-02 -5.72618563e-03  5.54214641e-02  4.90021184e-02
   3.57255922e-03  1.34067414e-02  8.76942798e-02  1.98933892e-02
   2.20820121e-02 -8.09941888e-02 -4.70707975e-02  2.89487503e-02
   7.27016628e-02  8.35766271e-03 -4.07337137e-02  2.03469787e-02
  -2.76285447e-02  5.09483181e-02  2.56462600e-02 -4.76077534e-02
   1.84100866e-02  6.69631660e-02  9.49035436e-02 -4.41184007e-02
   9.61005390e-02  7.92751610e-02  2.34898571e-02  2.61627361e-02
   8.33751857e-02 -1.60400067e-02 -5.04525937e-02 -2.78657340e-02
   9.75008607e-02  1.02434620e-01 -4.12567817e-02  5.36693111e-02]
 [ 1.04648724e-01  6.88335672e-02 -5.82359172e-02 -1.19310804e-01
   8.87387916e-02  1.99426878e-02 -3.63929197e-02  8.66162851e-02
  -1.35600977e-02 -3.90788019e-02 -3.71883884e-02  1.07015945e-01
   2.21179947e-02  2.26540007e-02 -1.14136592e-01 -5.52674234e-02
   8.53457153e-02  9.14962124e-03 -2.81437561e-02  1.32833123e-02
   2.58767977e-02 -1.47558954e-02 -7.95581266e-02 -1.36150628e-01
  -5.68909682e-02 -3.61128263e-02 -2.60938313e-02  6.46955892e-02
  -2.25766674e-02 -6.24515815e-03  7.17579341e-03 -8.27543959e-02
   4.74261828e-02  5.05280728e-03 -7.50458539e-02 -5.74342790e-04
   3.23470086e-02  6.49047717e-02 -1.87795665e-02 -7.56096840e-02
  -3.57912784e-03 -1.99597161e-02 -6.54241741e-02 -1.26252398e-02
  -8.52700993e-02 -2.49400344e-02 -8.43223184e-02 -1.00912683e-01
  -1.13480613e-02  3.18939760e-02  1.12961762e-01  7.47747421e-02
   2.53329631e-02 -4.09558341e-02 -5.03438339e-02  4.90147658e-02
   1.93184447e-02  6.11868203e-02 -6.81790486e-02  2.43950058e-02
  -4.38601486e-02 -1.58792865e-02  3.67874093e-02  5.27804457e-02
   9.53831822e-02  3.32378335e-02 -8.20078626e-02 -6.39580414e-02
   2.88380543e-03 -3.85615751e-02 -4.51709814e-02 -7.26590212e-03
  -6.64722025e-02  4.45219949e-02  6.57680929e-02  5.37075549e-02
   4.42612953e-02 -5.30915223e-02 -5.61316945e-02 -9.53117665e-03
  -6.94868043e-02 -1.82544384e-02 -4.03104313e-02  9.62538179e-03
   6.40850216e-02 -1.16197979e-02 -1.54677005e-02 -4.43540066e-02
   8.98523256e-02 -4.54880384e-04  5.74887656e-02  5.28256744e-02
  -2.78557912e-02 -6.48578331e-02  2.16283947e-02 -6.33154213e-02
   5.15522137e-02  2.82901265e-02 -1.23351015e-01 -1.07143074e-01
   5.46124019e-03  7.23470226e-02  2.88763400e-02 -1.17464028e-01
  -4.28709611e-02 -5.99419586e-02  4.25487533e-02 -4.97259945e-02
  -7.94871151e-02 -8.73899460e-02  7.41562098e-02 -4.45455275e-02
  -2.32053045e-02  8.55737540e-04 -5.99983428e-03  1.08620636e-02
  -1.04872994e-01  1.80386640e-02 -1.48978923e-02  6.84070885e-02
  -2.27084402e-02 -1.07465073e-01 -6.68631196e-02  4.51689661e-02
   2.12043710e-02 -1.23304367e-01  4.23665997e-03  1.27861751e-02]
 [ 4.98168543e-02 -3.19207720e-02  6.93394020e-02  4.27408628e-02
  -9.53960493e-02 -4.72284714e-03 -3.53301279e-02 -2.96705142e-02
   1.21761687e-01  1.60569608e-01  1.04255296e-01  8.98715630e-02
   1.30165964e-01  1.74132586e-02 -5.65001704e-02  7.93435276e-02
   8.59734975e-03 -4.46273461e-02  2.55498067e-02 -5.89737222e-02
  -3.16714644e-02 -7.27324635e-02 -1.86154414e-02 -4.06232011e-03
  -1.17861470e-02  7.81462193e-02  7.14142248e-02 -4.86289039e-02
   1.96905229e-02 -1.64169297e-02  1.60686374e-01 -6.84319735e-02
  -7.97715038e-02 -1.07959006e-03  1.24756344e-01  1.30879819e-01
  -8.68960097e-02 -8.46175626e-02  4.67741378e-02 -7.24408589e-03
  -1.03625990e-02  2.48317607e-02 -3.22459489e-02  1.26043679e-02
   3.78062613e-02 -9.30660740e-02 -8.03605318e-02  4.96332906e-02
   6.20542616e-02  7.61828795e-02 -5.08138025e-03  2.55801436e-03
   1.62329320e-02 -8.58797580e-02 -1.35354102e-02  3.38230096e-02
   5.85613288e-02  7.60474615e-03  5.94764017e-02 -5.70152700e-02
  -5.26740998e-02  1.28859719e-02 -2.16576532e-02 -3.45185138e-02
   7.09791854e-02 -7.04569444e-02 -6.34901673e-02 -3.17621082e-02
   2.52791913e-03 -5.13129421e-02 -2.90124342e-02 -4.97175157e-02
   8.35236255e-03  1.19316302e-01  5.11418581e-02 -5.25566284e-04
   5.67610599e-02  6.56619146e-02 -4.75019263e-03  5.23816906e-02
  -4.56159972e-02  7.54915252e-02 -5.80651425e-02 -1.41827762e-01
   8.11560750e-02 -3.65977399e-02 -1.10797003e-01 -1.02955736e-01
  -4.65517379e-02  7.24124536e-02  7.39065260e-02 -6.64318427e-02
   1.37122497e-02  4.71693324e-03 -1.01417199e-01 -4.61787768e-02
  -7.94847086e-02  1.42665818e-01  1.22119024e-01 -1.18425950e-01
   8.61071870e-02  3.57013172e-03  1.34856366e-02 -1.15159720e-01
  -7.78985918e-02  7.76223615e-02 -4.69598025e-02  1.36136472e-01
   3.23159620e-02 -1.31033167e-01  5.15088253e-02  1.00619577e-01
   9.12959352e-02  7.58216828e-02 -2.92781368e-02 -4.20505293e-02
  -5.99289089e-02  1.38773948e-01  8.98940638e-02  3.03900912e-02
